tree
version=v4
num_class=1
num_tree_per_iteration=1
label_index=0
max_feature_idx=9
objective=fair
feature_names=subdistrict luas_tanah luas_bangunan jumlah_lantai tahun_dibangun daya_listrik land_building_ratio total_bedrooms total_bathrooms building_area_floor_ratio
monotone_constraints=0 1 1 1 0 0 0 0 0 0
feature_infos=[0:119] [1:184855] [1:49577] [1:13] [0:20020] [0:95000] [0.00076923076994717121:4288] [1:99] [1:99] [0.1111111111111111:24788.5]
tree_sizes=2952 2983 3696 3017 3809 3532 2802 2771 3802 2994 3833 3538 3828 3880 3823 3824 3876 3844 3863 3465 3875 3903 3821 3895 3837 3461 3868 3850 3908 3913 3897 3838 3837 3902 3898 3761 3847 3827 3858 3113 3885 3764 1517 3843 2182 1741 2831 2646 1840 2910 3875 2367 3844 3775 2180 1713 3841 3805 1938 1631 2380 1730 3041 2070 3863 2127 3827 2010 3201 3824 3012 2162 2447 2997 2885 3898 3176 2233 1854 2423 2346 3819 3828 3842 2498 3889 3813 2871 1590 3892 3861 3458 3263 2558 3871 2218 2035 3877 3727 3908 2246 2997 1722 3806 3815 3510 3699 2041 1805 3881 2556 2406 3912 3826 3824 2320 3694 3797 2130 3869 3856 3748 3659 1572 3709 3732 3811 3025 2191 3757 3819 3783 3204 3857 2802 3836 2859 3114 2683 2228 3848 2193 3780 2138 3870 3849 3808 3844 2705 3802 3811 3769 3456 3735 3786 2435 3247 3804 2363 3848 2278 3686 2747 3130 3856 3730 2632 3812 3801 2091 3718 3769 3804 3850 2584 3189 3524 3802 2272 3055 3281 3282 2997 3917 3832 3759 2740 1763 2520 2605 3840 3806 3645 1929 3730 2318 3827 3806 3768 3733 3762 3679 3709 2275 3489 3739 2518 2574 2022 3747 3769 3774 3787 2852 3786 2318 3658 3738 2952 3772 2759 3728 3777 3663 3722 3755 3213 3294 2605 2984 3634 3270 3074 2079 3797 3294 2216 2212 2856 1938 2554 3716 2196 3679 3626 3402 1876 3808 2960 2791 3647 3835 3664 1758 3784 3709 3779 3846 3842 3829 3706 3356 3417 3754 3362 3824 3866 3784 3722 3799 3821 3820 3756 3726 2412 2751 3663 2709 3725 3708 2670 3680 3672 2754 3716 3773 2839 3803 3364 3801 3833 3791 3751 3725 3647 3784 3731 3772 3796 3786 2210 3855 3738 3689 3724 3548 3739 3746 3818 3781 3720 3725 3755 3822 3767 2087 3828 3780 3798 3765 3659 3707 3795 2683 3811 3777 3580 3578 3688 3844 3736 3657 3740 3641 3615 3749 3663 3701 3742 3610 3849 3817 3658 3128 3260 3698 3639 3654 3601 3717 3796 3674 3659 3739 3707 3372 3727 3597 3753 3783 3691 3699 2827 3792 2352 3784 3797 3565 3800 3541 3772 3729 3302 3580 3799 3685 3164 2595 3761 3648 3699 3690 3697 3759 3735 3719 3682 2810 3699 3208 3683 2214

Tree=0
num_leaves=28
num_cat=0
split_feature=2 2 2 2 2 8 5 8 5 5 5 5 2 8 2 0 0 0 7 5 2 2 2 0 5 2 7
split_gain=4227.43 1712.7 1152.93 343.456 272.658 162.781 101.913 81.277 58.2311 31.701 15.6588 14.4724 11.6604 4.34045 3.46286 3.35564 4.11782 2.46124 2.20867 2.20224 1.76118 1.63745 1.30851 1.14912 0.607705 0.0241725 0.00432769
threshold=160.50000000000003 50.500000000000007 357.50000000000006 82.500000000000014 36.500000000000007 3.5000000000000004 1750.0000000000002 2.5000000000000004 1750.0000000000002 1750.0000000000002 2250.0000000000005 3400.0000000000005 120.50000000000001 1.5000000000000002 66.500000000000014 44.500000000000007 9.5000000000000018 55.500000000000007 1.5000000000000002 1750.0000000000002 100.50000000000001 95.500000000000014 175.50000000000003 9.5000000000000018 1750.0000000000002 88.500000000000014 3.5000000000000004
decision_type=8 10 10 10 10 2 8 2 8 8 8 8 10 2 10 2 2 2 2 8 10 10 8 2 8 10 2
left_child=1 4 5 6 -1 10 23 9 -6 -5 -2 -7 19 18 -8 16 -15 -17 -11 26 -20 25 -13 -3 -14 -21 -9
right_child=2 3 -4 7 8 11 14 12 -10 13 -12 22 24 15 -16 17 -18 -19 20 21 -22 -23 -24 -25 -26 -27 -28
leaf_value=20.763933457349022 21.044139903888343 20.964155484930288 21.327871941287892 20.975406660050144 20.853890576493395 21.091460153890729 20.957238190805874 21.002600005129491 20.908930392662864 21.003498832615922 21.078179136090004 21.044139903888343 21.028180679478318 21.007798690055157 20.975406660050144 21.017320515987024 20.986432275710076 21.002600005129491 20.975406660050144 21.002600005129491 21.002600005129491 21.021974963943482 21.160641752765422 20.908930392662864 21.043924570880321 21.004931067480097 21.000022049784537
leaf_weight=327.11372027546167 348.50726041570306 68.223664790391922 220.72552169673145 281.27119819261134 347.11816410347819 245.76360403373837 331.4112836625427 25.28256568312645 225.24602132290602 36.080491025000811 241.67000455409288 16.668253183364868 55.982025004923344 139.60402412712574 402.81339956074953 201.10418517887592 123.17954644560814 173.76938647031784 52.06299552321434 28.795582816004753 26.581898398697376 259.93707735091448 289.96734914556146 344.2224748134613 381.44797542691231 51.243750602006912 26.052774101495743
leaf_count=1609 701 141 1390 562 1228 669 639 39 489 68 613 39 100 218 676 298 206 278 104 43 42 417 1086 989 730 79 43
internal_value=20.9982 20.9478 21.1405 20.9829 20.835 21.0969 20.9427 21.0081 20.8854 20.9906 21.0575 21.1339 21.0299 21.0022 20.9666 21.0052 20.9976 21.0109 20.9871 21.0159 20.9801 21.0186 21.1567 20.9089 21.0405 21.004 21.0006
internal_weight=5271.85 3908.54 1363.3 3009.07 899.478 1142.58 1146.67 1862.4 572.364 1033.65 590.177 552.399 828.742 752.383 734.225 637.657 262.784 374.874 114.725 391.312 78.6449 339.976 306.636 412.446 437.43 80.0393 51.3353
internal_count=13496 8998 4498 5672 3326 3108 2445 3227 1717 1776 1314 1794 1451 1214 1315 1000 424 576 214 621 146 539 1125 1130 830 122 82
is_linear=0
shrinkage=1


Tree=1
num_leaves=27
num_cat=0
split_feature=1 2 1 1 5 1 5 2 5 5 1 2 1 5 1 7 7 6 1 7 0 0 3 3 0 3
split_gain=3455.24 1355.64 536.765 377.177 227.293 203.992 57.7919 57.1101 52.2682 44.6628 38.2281 27.845 11.8365 7.34871 7.26502 3.32868 2.59671 2.5881 2.40043 1.27705 1.11522 1.18036 0.850137 0.539328 0.295344 0.128452
threshold=215.50000000000003 66.500000000000014 430.50000000000006 77.500000000000014 1750.0000000000002 118.50000000000001 3950.0000000000005 200.50000000000003 1750.0000000000002 1750.0000000000002 60.500000000000007 102.50000000000001 171.50000000000003 1750.0000000000002 96.500000000000014 4.5000000000000009 3.5000000000000004 1.1431878805160525 127.50000000000001 6.5000000000000009 8.5000000000000018 92.500000000000014 1.5000000000000002 1.5000000000000002 9.5000000000000018 1.5000000000000002
decision_type=10 10 10 8 8 8 8 10 8 8 10 10 8 8 10 2 2 10 10 2 2 2 2 2 2 2
left_child=1 3 7 4 10 9 -4 -2 -7 15 -1 18 16 -5 19 -3 -13 -16 25 20 -11 -22 24 -19 -20 -10
right_child=2 5 6 13 -6 8 -8 -9 11 14 -12 12 -14 -15 17 -17 -18 23 22 -21 21 -23 -24 -25 -26 -27
leaf_value=-0.23554889983377036 0.056614861440006145 -0.055478777357579577 0.16509183588763196 -0.075644564460028638 -0.10436868109643595 -0.0052933793728818963 0.288216515173424 0.11895357193452703 -0.0052933793728818963 -0.016096276433207383 -0.13860859878455359 0.019330949953938831 0.050954009043276162 -0.055478777357579577 -0.0052933793728818963 -0.0052933793728818963 0.031296922593429158 -0.016096276433207383 0.0074378928089025654 -0.016096276433207383 -0.034304394996600193 -0.016096276433207383 0.014106962624360586 -0.0052933793728818963 0.0017602055496516657 0
leaf_weight=244.22198303975165 358.98218916356564 321.79341389238834 163.88286415114999 395.85086709260941 310.99738797917962 283.51947505027056 196.62593413330615 386.61582127958536 47.261588394641876 145.43863365054131 306.72640813887119 247.47496317327023 326.7552272900939 365.39950554445386 236.63639023154974 17.779930412769318 483.92445223778486 78.462506242096424 41.765417844057083 25.439657963812351 291.48879263550043 80.231435090303421 114.78083294630051 75.556112617254257 90.073514074087143 63.502731420099735
leaf_count=1215 803 709 611 941 724 494 1150 1213 71 213 1055 385 688 634 354 29 822 137 61 35 519 141 170 102 131 89
internal_value=-0.00371999 -0.0401935 0.144811 -0.109193 -0.151849 -0.00176445 0.237797 0.092387 0.0196061 -0.0301929 -0.191534 0.0274153 0.0350009 -0.0568886 -0.0181561 -0.0554788 0.0260105 -0.00702789 0.00366103 -0.0251647 -0.0267366 -0.0305534 0.00881379 -0.0160963 0.00176021 -0.00529338
internal_weight=5701.19 4595.08 1106.11 1623.2 861.946 2971.89 360.509 745.598 1699.06 1272.83 550.948 1415.54 1058.15 761.25 933.254 339.573 731.399 390.655 357.384 542.599 517.159 371.72 246.62 154.019 131.839 110.764
internal_count=13496 9719 3777 4569 2994 5150 1761 2016 2911 2239 2270 2417 1895 1575 1501 738 1207 593 522 908 873 660 362 239 192 160
is_linear=0
shrinkage=0.0950269


Tree=2
num_leaves=34
num_cat=0
split_feature=2 2 2 6 2 4 8 2 6 2 3 6 8 6 6 2 3 6 6 8 6 2 2 6 9 2 3 8 2 6 6 9 9
split_gain=2463.36 617.949 519.781 140.062 124.766 93.2645 64.6168 63.103 54.9917 28.0606 24.0547 21.8667 15.8473 11.6754 4.80352 5.15901 3.97156 3.61379 3.21301 2.74925 3.09722 2.56217 2.41182 1.49559 0.457402 0.406697 0.370835 1.63149 0.332853 0.201329 0.175286 0.171849 0.15043
threshold=120.50000000000001 300.50000000000006 45.500000000000007 1.1781284809112551 80.500000000000014 2015.5000000000002 3.5000000000000004 477.50000000000006 1.5112373828887942 160.50000000000003 1.5000000000000002 1.2740712165832522 2.5000000000000004 0.6550109088420869 0.71572223305702221 170.50000000000003 1.5000000000000002 1.0289916396141054 1.4769936800003054 1.5000000000000002 1.8271306157112124 72.500000000000014 150.50000000000003 1.0805405378341677 124.75000000000001 199.50000000000003 1.5000000000000002 2.5000000000000004 95.500000000000014 1.1963961124420168 0.88991525769233715 99.166666666666671 103.75000000000001
decision_type=8 10 10 8 10 2 2 10 10 8 2 8 2 10 10 10 2 10 10 2 10 10 10 10 10 10 2 2 10 10 10 10 10
left_child=2 3 5 6 8 -1 14 -3 10 18 -4 12 16 25 -2 24 -6 -18 -5 20 -13 -12 -15 28 -16 -8 27 32 -14 -19 -30 -25 -21
right_child=1 7 4 9 11 -7 13 -9 -10 -11 21 19 23 22 15 -17 17 29 -20 26 -22 -23 -24 31 -26 -27 -28 -29 30 -31 -32 -33 -34
leaf_value=-0.069715642308377304 0.0097603778034672482 0.11302972757007218 -0.069374557722525459 0.02144932630716867 -0.027047113664194513 -0.13771803586280559 0.0097603778034672482 0.21804223126359346 -0.027047113664194513 0.097449133722948569 -0.044880008732600549 -0.018603190016569324 -0.0081805335550587024 0.018899402420180612 0.014311639186964781 0.031111557236937971 -0.019672153094988074 0.0028752330751941882 0.057177387122364927 -0.004980728066785213 0.0097603778034672482 -0.027047113664194513 0.063588055129096641 0.0097603778034672482 0.0097603778034672482 0.018821358109651128 0.0097603778034672482 0.0065412036351873521 -0.0030009162356075293 -0.0039111969990791862 0.0030944123351797797 0 0
leaf_weight=458.15161193907261 322.99290984869003 265.26571572199464 524.86909989267588 113.6007537394762 215.63925477862358 537.28290168941021 25.176566690206528 190.925821300596 564.26972278952599 423.86311608366668 277.93822652846575 44.317304939031601 37.755810379981995 52.528246164321899 191.38962662220001 180.29700954258442 154.64323662221432 87.811443954706192 113.60648564621806 104.26463113725185 29.506215505301952 112.28328155726194 360.82265178859234 70.809681661427021 108.67347410321236 67.301102370023727 203.66008999198675 75.917955040931702 51.452963978052139 26.253619223833084 60.05411434173584 24.80240835249424 36.832991555333138
leaf_count=1061 510 823 1254 204 411 1777 44 909 924 1188 538 80 57 93 284 352 245 125 273 167 55 182 811 109 170 112 311 122 75 39 93 36 62
internal_value=-0.00297564 0.0711239 -0.0516032 0.046428 -0.029311 -0.109438 0.0273255 0.167761 -0.0476237 0.0818127 -0.0621544 -0.0064705 -0.0167253 0.0530289 0.00976038 0.0190067 -0.0262414 -0.0122972 0.0443237 0.00848742 -0.00607729 -0.0375106 0.0598368 0.00240418 0.00976038 0.0144303 0.00976038 0.00332203 -0.00288075 0 0 0.00976038 -0.00338725
internal_weight=6114.96 2416.44 3698.52 1960.25 2703.08 995.435 1309.18 456.192 1479.36 651.07 915.091 1223.72 729.223 505.829 803.353 480.36 484.348 268.708 227.207 494.499 73.8235 390.222 413.351 244.875 300.063 92.4777 420.676 217.016 149.263 114.065 111.507 95.6121 141.098
internal_count=13496 5773 7723 4041 4885 2838 2376 1732 2898 1665 1974 1987 1190 1060 1316 806 820 409 477 797 135 720 904 370 454 156 662 351 225 164 168 145 229
is_linear=0
shrinkage=0.0950269


Tree=3
num_leaves=27
num_cat=0
split_feature=1 5 1 1 1 1 3 2 1 1 2 0 0 0 1 5 3 3 7 3 1 0 0 1 0 1
split_gain=2040.99 598.85 362.471 242.938 117.359 62.8242 38.0796 20.1388 18.9544 14.5487 13.5692 9.90744 5.25803 4.66221 3.6116 3.39381 2.88551 2.71455 2.70868 2.14907 1.56819 1.17064 1.12096 0.992036 0.917688 0.553482
threshold=170.50000000000003 1750.0000000000002 311.50000000000006 72.500000000000014 110.50000000000001 1000.5000000000001 1.5000000000000002 72.500000000000014 60.500000000000007 104.50000000000001 102.50000000000001 7.5000000000000009 2.5000000000000004 9.5000000000000018 78.500000000000014 2250.0000000000005 1.5000000000000002 1.5000000000000002 3.5000000000000004 1.5000000000000002 195.50000000000003 92.500000000000014 9.5000000000000018 152.50000000000003 38.500000000000007 132.50000000000003
decision_type=8 8 10 10 10 10 2 10 10 10 10 2 2 2 10 10 2 2 2 2 10 2 2 10 2 10
left_child=1 3 6 8 7 11 15 12 -1 -5 19 -4 -3 25 -14 -2 -15 -12 21 23 -8 22 -9 -6 -21 -11
right_child=2 4 5 9 10 -7 20 18 -10 13 17 -13 14 16 -16 -17 -18 -19 -20 24 -22 -23 -24 -25 -26 -27
leaf_value=-0.14262955446763681 0.021380226875534428 -0.024635693710689754 0.1316946457261727 -0.057638869508497732 -0.0065470948658236964 0.18936671519526743 0.03961706759650821 -0.0075425027858767877 -0.088729737649161436 -0.0090564720253453312 0.0099643105848839942 0.086344004269981303 -0.049523360979362871 -0.039068854036463527 -0.026385560891212845 0.03961706759650821 -0.012023141412553883 0.021380226875534428 -0.0065470948658236964 0.00014376312230299606 0.064011210176532954 -0.0065470948658236964 -0.023515688680294335 0.00014376312230299606 0.0099643105848839942 0.0026023542506463651
leaf_weight=372.82875749468803 382.11065677553415 210.89887397736311 232.42606181651354 557.25840550661087 201.52221398055553 165.72086314111948 186.95258289575577 121.52613261342049 399.90730170533061 45.360285669565201 223.65111158788204 368.3672442920506 358.76326038688421 286.02281782031059 273.47036023437977 79.376967616379261 96.760645851492882 553.73226057738066 245.72776775062084 48.272153437137604 476.91276870667934 77.81161467730999 276.43862841278315 42.30244305729866 140.94184440374374 27.942088216543198
leaf_count=1289 671 310 783 1161 295 730 342 177 1053 68 346 961 708 544 452 169 151 886 365 75 1081 128 456 61 194 40
internal_value=-0.00252012 -0.0369462 0.0797066 -0.0794008 -0.00902998 0.129301 0.0433869 -0.0260387 -0.119162 -0.046456 0.0129445 0.104486 -0.0359919 -0.0298635 -0.0413285 0.0213802 -0.0338963 0.0202324 -0.0132795 -0.000303752 0.0578539 -0.0175808 -0.0198014 -0.00616019 0.00644772 -0.00384058
internal_weight=6453.01 4561.14 1891.87 1786.08 2775.06 766.514 1125.35 1564.64 772.736 1013.34 1210.42 600.793 843.132 456.086 632.234 461.488 382.783 777.383 721.504 433.039 663.865 475.776 397.965 243.825 189.214 73.3024
internal_count=13496 8759 4737 4306 4453 2474 2263 2596 2342 1964 1857 1744 1470 803 1160 840 695 1232 1126 625 1423 761 633 356 269 108
is_linear=0
shrinkage=0.0950269


Tree=4
num_leaves=35
num_cat=0
split_feature=8 9 8 4 8 9 8 0 0 4 6 6 6 9 0 9 0 0 0 6 0 9 0 6 0 9 3 9 0 3 6 6 9 9
split_gain=1454.5 243.734 229.851 112.371 63.3302 53.5762 51.885 43.453 31.2592 26.3961 16.6495 15.9941 14.5336 13.7636 12.8331 12.7319 11.7969 15.6734 10.1843 8.36458 7.31484 5.14778 4.36432 4.32941 3.90822 3.4633 3.31105 3.47224 3.2665 3.1855 2.97124 2.58541 2.38739 1.92937
threshold=2.5000000000000004 165.50000000000003 1.5000000000000002 2016.5000000000002 4.5000000000000009 145.50000000000003 3.5000000000000004 4.5000000000000009 8.5000000000000018 2019.5000000000002 2.435767769813538 1.0805405378341677 0.66583335399627697 94.750000000000014 49.500000000000007 60.125000000000007 50.500000000000007 55.500000000000007 8.5000000000000018 1.4121323823928835 55.500000000000007 115.16666666666667 105.50000000000001 1.6927146911621096 92.500000000000014 52.250000000000007 1.5000000000000002 37.250000000000007 92.500000000000014 1.5000000000000002 0.71572223305702221 2.7299783229827885 165.50000000000003 61.166666666666679
decision_type=2 8 2 2 2 8 2 2 2 2 10 8 8 10 2 10 2 2 2 10 2 10 2 10 2 10 2 10 2 2 10 10 10 10
left_child=2 6 3 5 11 8 19 -5 31 10 14 -3 -8 23 18 -14 -10 -18 21 25 -16 -4 -6 -9 -22 -2 -11 -28 -19 -20 -27 -1 -7 -21
right_child=1 4 9 7 22 32 12 13 16 26 -12 -13 15 -15 20 -17 17 28 29 33 24 -23 -24 -25 -26 30 27 -29 -30 -31 -32 -33 -34 -35
leaf_value=-0.015152884966307789 -0.0037767920847064499 0.037179488800209624 -0.010576438735789844 -0.01234665309001369 0.13616523592269714 0 0.012732556223732375 -0.10885555691267469 -0.06577248274453823 -0.051296381865399192 0.024642254787065443 0.084491045693303221 0.013412294543377723 0 0.0099856437724728606 0.05811584064504012 -0.0050899360645886103 -0.055348806397687057 -0.037005226666442521 0.0073416807208022024 -0.017235046657254595 0.016366688397436342 0.024578950761405895 -0.070052549625780738 -7.10396998841834e-05 0.00032691779362790382 -0.032162364292570182 -0.0072675410404444982 -0.027068956208707452 -0.015092063106683972 0.016727314084246093 0.0076005726204348319 0.034098026667676494 0.037615982322939161
leaf_weight=223.71690121293068 104.36563371121883 209.77384125441313 256.25437611341476 82.682113327085972 296.62295095436275 17.496532913297415 119.66835421323776 391.57532185316086 415.79320709779859 105.29214053601027 105.34524832293391 237.08385940641165 93.503400716930628 15.878257445991037 285.36782428622246 711.42660127580166 121.90396326035261 255.93641121685505 213.15395196527243 53.055365644395351 210.58180170506239 51.864459186792374 20.914846271276474 372.53986075520515 271.56046140193939 147.87575143575668 165.4751293156296 119.49558545649052 190.6279366761446 208.03838086128235 460.31700471043587 27.680077999830246 62.067577183246613 158.02767415344715
leaf_count=331 160 417 385 135 1010 39 189 1141 941 239 210 632 156 32 405 1515 168 541 404 87 351 89 44 857 419 224 296 188 336 325 732 45 139 314
internal_value=-0.00216607 0.053065 -0.0369278 -0.0580945 0.0975299 -0.0389852 0.0333691 -0.0848412 -0.0439427 -0.0132184 -0.00740104 0.0662153 0.0491228 -0.0916361 -0.0101733 0.053736 -0.0514866 -0.0381029 -0.0189543 0.0164339 -0.00127207 -0.00461916 0.131897 -0.093391 -0.00838591 0.0104374 -0.0345986 -0.0237979 -0.0459667 -0.0281629 0.0131469 -0.0116414 0.0278888 0.0323829
internal_weight=6782.96 2612.64 4170.33 2177.9 764.395 1315.22 1848.24 862.676 1235.66 1992.43 1602.17 446.858 924.598 779.993 1496.82 804.93 984.262 568.468 729.311 923.641 767.51 308.119 317.538 764.115 482.142 712.558 390.263 284.971 446.564 421.192 608.193 251.397 79.5641 211.083
internal_count=13496 5480 8016 4705 2103 2540 3377 2165 2362 3311 2588 1049 1860 2030 2378 1671 1986 1045 1203 1517 1175 474 1054 1998 770 1116 723 484 877 729 956 376 178 401
is_linear=0
shrinkage=0.0950269


Tree=5
num_leaves=32
num_cat=0
split_feature=1 5 1 1 1 5 0 3 2 3 2 1 1 0 0 1 2 1 0 5 3 1 1 2 0 2 9 2 0 1 2
split_gain=1290.21 345.958 207.043 109.511 79.458 39.5146 30.0278 13.2228 10.1057 8.83973 7.04044 6.82119 5.11278 2.7728 2.3298 2.30128 1.67344 1.45433 1.24245 0.996831 0.92657 0.828018 0.802143 0.656365 0.30544 0.302038 0.124233 0.245917 0.09707 0.0688013 0.0446661
threshold=170.50000000000003 1750.0000000000002 439.00000000000006 75.500000000000014 110.50000000000001 2250.0000000000005 9.5000000000000018 1.5000000000000002 66.500000000000014 1.5000000000000002 102.50000000000001 60.500000000000007 238.50000000000003 7.5000000000000009 2.5000000000000004 96.500000000000014 148.50000000000003 124.50000000000001 9.5000000000000018 3950.0000000000005 1.5000000000000002 150.50000000000003 78.500000000000014 104.50000000000001 105.50000000000001 100.50000000000001 66.833333333333357 180.50000000000003 8.5000000000000018 238.50000000000003 109.50000000000001
decision_type=8 8 10 10 10 10 2 2 10 2 10 10 10 2 2 10 10 10 2 10 2 10 10 10 2 10 10 10 2 10 10
left_child=1 3 5 11 8 7 -4 13 14 16 17 -1 -7 -2 -3 19 21 -5 -12 24 30 25 -16 -11 28 -6 -20 -28 -10 -9 -17
right_child=2 4 6 10 9 12 -8 29 15 23 18 -13 -14 -15 22 20 -18 -19 26 -21 -22 -23 -24 -25 -26 -27 27 -29 -30 -31 -32
leaf_value=-0.094906264307271296 0.026291515915050835 -0.021243157943694909 0.14498575680551895 -0.041895536705390798 -0.0049954609875559192 0.037117988447985924 0.079462278465978878 0.026291515915050835 -0.011226821686114363 0.007665873370032575 0 -0.062990230425831392 0.068456025837092385 0.015271324513288553 -0.039225775533335283 -0.011226821686114363 0.007665873370032575 -0.026294953648699822 -0.001967532984210913 -0.011226821686114363 -0.0049954609875559192 0.0022562935722852699 -0.021243157943694909 0.015271324513288553 -0.011226821686114363 -0.0013695837076353244 -0.021631572328543919 -0.0024870618152080196 -0.021243157943694909 0.045301056154776004 -0.0081111413368351419
leaf_weight=480.53987234830856 145.32610470056534 178.76330243423581 188.0292748734355 719.38703678920865 197.70806373655796 238.38639435917139 394.75125064700842 254.77788749337196 133.51447692513466 191.42089240252972 31.940209805965424 515.99447250366211 370.79207864403725 333.60393789410591 326.7691216096282 95.845296889543533 127.63637325167656 155.9899946898222 31.178560689091682 36.970292754471302 205.9396086037159 69.980426877737045 215.8825474716723 575.56304187327623 36.526825755834579 77.512138098478317 86.561656057834625 33.284421294927597 366.75103978812695 215.85933624207973 33.621989980340004
leaf_count=1289 252 256 677 1322 289 443 1046 439 191 269 47 1136 861 578 599 151 190 259 47 55 286 102 347 886 61 121 155 51 601 441 49
internal_value=-0.001879 -0.0286554 0.059198 -0.0581401 -0.00712762 0.0396942 0.106749 0.0259945 -0.0207836 0.0107927 -0.0350965 -0.0807816 0.0586675 0.0152713 -0.0293307 -0.0131557 6.04222e-05 -0.0388154 -0.0137745 -0.0168824 -0.0055712 -0.00315329 -0.0337189 0.0152713 -0.0183836 -0.00499546 -0.0168985 -0.0187405 -0.0195484 0.0373117 -0.0112268
internal_weight=7066.81 4925.28 2141.53 2054.88 2870.41 1558.75 582.781 949.567 1630.58 1239.82 1058.34 996.534 609.178 478.93 721.415 909.17 472.837 875.377 182.965 573.763 335.407 345.201 542.652 766.984 536.792 275.22 151.025 119.846 500.266 470.637 129.467
internal_count=13496 8759 4737 4306 4453 3014 1723 1710 2596 1857 1881 2425 1304 830 1202 1394 702 1581 300 908 486 512 946 1155 853 410 253 206 792 880 200
is_linear=0
shrinkage=0.0950269


Tree=6
num_leaves=25
num_cat=0
split_feature=1 1 5 1 1 8 1 6 1 2 8 5 5 5 8 8 5 1 5 2 1 8 1 2
split_gain=1022.91 242.523 184.877 58.9056 57.1125 38.4333 32.4578 7.38232 6.22221 5.39972 5.10032 4.07329 2.85073 2.63707 1.75223 1.68399 1.15595 0.912933 0.595068 0.483951 0.0288398 0.073809 0.0109861 0.00375525
threshold=135.50000000000003 291.50000000000006 1750.0000000000002 1000.5000000000001 72.500000000000014 2.5000000000000004 96.500000000000014 0.98648402094841015 192.50000000000003 100.50000000000001 1.5000000000000002 3950.0000000000005 1750.0000000000002 3950.0000000000005 2.5000000000000004 1.5000000000000002 3950.0000000000005 55.500000000000007 2250.0000000000005 87.500000000000014 104.50000000000001 2.5000000000000004 120.50000000000001 72.500000000000014
decision_type=8 10 8 10 10 2 10 10 8 10 2 10 8 10 2 2 8 10 10 10 10 2 10 10
left_child=2 5 4 13 17 18 10 20 12 15 11 -4 -7 -3 -9 -8 23 -1 -2 22 -6 -22 -17 -12
right_child=1 3 6 -5 7 8 9 14 -10 -11 16 -13 -14 -15 -16 19 -18 -19 -20 -21 21 -23 -24 -25
leaf_value=-0.096116665735672971 0.0046592221139377301 0.049063517090935711 -0.032990990486710448 0.12034083302480808 -0.010874896694263586 0.0046592221139377301 -0.010975700724991032 -0.037792686058051486 0.03715175769744733 0.0046592221139377301 -0.021885678806434813 -0.010975700724991032 0.022257821560138689 0.074251892288764887 -0.0048477703013551521 -0.0066869090937713305 -0.010975700724991032 -0.061040767045904984 0.01605407356388875 -0.00096002433686399218 -0.0038896496077731766 0 -0.0033713856881333795 -0.012827993603333322
leaf_weight=116.74113754183054 600.49899485707283 580.94894781336188 455.53812394291162 221.02309232018888 85.979086637496948 46.712827324867249 136.01565308868885 819.0112993940711 589.99844402074814 506.51575662195683 323.157007900998 37.158701866865158 570.78005582094193 327.04601595550776 33.845113724470139 136.74462258070707 134.40508882701397 932.6319143306464 92.052674986422062 203.13714717328548 24.251027226448059 25.460794717073441 32.134883552789688 311.20319473743439
leaf_count=345 941 1236 787 730 129 73 214 1463 1100 744 509 48 896 791 52 188 193 1997 156 292 38 38 44 492
internal_value=-0.00155584 0.0405297 -0.0312113 0.0749285 -0.0518311 0.0191933 -0.0122666 -0.0335274 0.0293908 0.000313669 -0.0222651 -0.0304159 0.0204224 0.0603157 -0.0368407 -0.00657927 -0.0159495 -0.0675713 0.00465922 -0.00203984 -0.00905116 -0.00134866 -0.00578275 -0.0184054
internal_weight=7342.99 3029.06 4313.93 1129.02 2037.92 1900.04 2276.01 988.547 1207.49 1014.55 1261.46 492.697 617.493 907.995 852.856 508.032 768.765 1049.37 692.552 372.017 135.691 49.7118 168.88 634.36
internal_count=13496 5923 7573 2757 4062 3166 3511 1720 2069 1482 2029 835 969 2027 1515 738 1194 2342 1097 524 205 76 232 1001
is_linear=0
shrinkage=0.0950269


Tree=7
num_leaves=25
num_cat=0
split_feature=1 1 8 1 1 8 1 3 2 3 1 1 6 8 6 9 1 6 6 9 6 1 3 6
split_gain=814.093 181.646 122.687 48.0807 45.1127 30.878 29.433 9.33931 8.04695 5.05215 4.21917 3.2756 2.27509 1.12075 0.975742 0.645924 0.478528 0.2058 0.0540567 0.0536984 0.159929 0.0429012 0.0146483 0.00674384
threshold=135.50000000000003 287.50000000000006 1.5000000000000002 69.500000000000014 724.50000000000011 2.5000000000000004 96.500000000000014 1.5000000000000002 547.50000000000011 1.5000000000000002 192.50000000000003 83.500000000000014 0.96039214730262767 2.5000000000000004 1.3785440921783449 109.75000000000001 119.50000000000001 0.54570025205612194 0.99627572298049938 59.166666666666679 1.1431878805160525 108.50000000000001 1.5000000000000002 1.3602721095085146
decision_type=8 10 2 10 10 2 10 2 8 2 8 10 10 2 10 10 10 10 10 10 10 10 2 10
left_child=2 5 3 -1 -3 -2 7 18 -6 12 14 -5 -8 -9 17 -13 19 -7 -4 20 -11 -21 -16 -22
right_child=1 4 6 11 8 10 9 13 -10 16 -12 15 -14 -15 22 -17 -18 -19 -20 21 23 -23 -24 -25
leaf_value=-0.062272064990313722 0.0040000301220847103 0.048948663717516439 -0.023991678931141576 -0.038422908510372875 0.071525264239561806 0.0040000301220847103 -0.0019809269864951734 -0.017335429764933557 0.12302127307622704 0.0020000150610423552 0.032271739038643985 -0.025670123663582609 -0.010823726317094249 -0.010823726317094249 0.0040000301220847103 -0.0013987309647953911 0.0040000301220847103 0.020556048079065262 -0.038320115664077711 -0.0019809269864951734 -0.0014213302768442224 0 0.0073395577663626531 0
leaf_weight=781.45151518657804 691.2862256243825 866.71983764320612 100.57321028411388 632.96589184552431 213.29569876380265 33.561981126666069 119.63018807768822 553.6675394512713 134.24180586636066 81.903339624404907 604.41073183715343 826.20701264590025 283.91939741373062 173.30420607328415 45.814619332551956 25.354674518108368 350.8379335552454 504.60685111582279 280.71067302674055 88.167772710323334 78.439294099807739 28.2548688352108 44.224794775247574 41.942832797765732
leaf_count=1673 1091 1788 173 1135 527 52 174 854 464 120 1084 1347 435 261 66 42 517 787 520 123 101 41 64 57
internal_value=-0.00137853 0.0354758 -0.0274757 -0.0428577 0.063892 0.0167835 -0.0110804 -0.0217309 0.0941019 8.34378e-05 0.025797 -0.0315425 -0.00796188 -0.0141333 0.0182046 -0.0251692 0.00400003 0.0198718 -0.0338501 0 0.000789352 -0.00152883 0.00469144 -0.00102336
internal_weight=7585.49 3138.16 4447.33 2265.98 1214.26 1923.91 2181.35 1108.26 347.538 1073.1 1232.62 1484.53 403.55 726.972 628.208 851.562 669.546 538.169 381.284 318.708 202.285 116.423 90.0394 120.382
internal_count=13496 5923 7573 4197 2779 3144 3376 1808 991 1568 2053 2524 609 1115 969 1389 959 839 693 442 278 164 130 158
is_linear=0
shrinkage=0.0950269


Tree=8
num_leaves=35
num_cat=0
split_feature=1 5 1 1 1 0 1 5 0 3 1 0 3 2 6 0 2 0 0 0 1 1 0 1 0 1 5 2 0 5 0 6 3 6
split_gain=651.546 157.55 97.336 37.1824 29.7633 21.9708 24.673 21.1877 12.4354 6.74599 5.53884 5.34415 5.15477 4.26916 4.1754 2.88289 2.44876 2.41479 4.53549 7.66912 1.76004 1.68425 1.67386 1.5936 1.38506 1.29631 0.767362 0.452762 0.404782 0.336402 0.179858 0.149371 0.135139 0.099683
threshold=160.50000000000003 1750.0000000000002 419.50000000000006 110.50000000000001 75.500000000000014 9.5000000000000018 982.00000000000011 3400.0000000000005 7.5000000000000009 1.5000000000000002 55.500000000000007 8.5000000000000018 1.5000000000000002 87.500000000000014 0.96039214730262767 49.500000000000007 110.50000000000001 27.500000000000004 54.500000000000007 55.500000000000007 1786.0000000000002 96.500000000000014 63.500000000000007 72.500000000000014 47.500000000000007 180.50000000000003 2250.0000000000005 107.50000000000001 92.500000000000014 1100.0000000000002 10.500000000000002 1.8602325916290285 1.5000000000000002 0.81380951404571544
decision_type=8 8 10 10 10 2 10 10 2 2 10 2 2 10 10 2 8 2 2 2 10 10 2 10 2 10 10 10 2 10 2 10 2 10
left_child=1 4 7 11 10 6 -4 8 16 -10 -1 26 23 -5 29 -11 -2 -16 -19 -20 -7 24 -17 -13 -14 -9 27 31 -21 -6 -31 -3 -15 -32
right_child=2 3 5 13 14 20 -8 25 9 15 -12 12 21 32 17 22 -18 18 19 28 -22 -23 -24 -25 -26 -27 -28 -29 -30 30 33 -33 -34 -35
leaf_value=-0.074557193233850294 0.0089382855742626381 -0.010803196349981227 0.05890112229855661 -0.0033076338900822565 0 0.045207710722692612 0.14454055121215323 0.017510373957996213 0.0082602337833037054 0.013963459604865724 -0.044160380329000076 -0.03162866661894486 -0.017022341557786813 0.002511243779906146 -0.018689164426568459 0.03038689288675114 0.034248644060322339 -0.037579265279718645 0.0020074787314433261 -0.034117081798150914 0.070551487601448373 -0.0033076338900822565 0.013963459604865724 -0.017022341557786813 -0.0081994782523807635 0.042460121139834099 -0.0033076338900822565 -0.0033076338900822565 -0.01556448256635754 0 -0.012604992388918435 -0.0064456692186370748 0.0082602337833037054 0
leaf_weight=134.26730965077877 83.802077576518059 236.29475294798613 207.65770369023085 184.59236913919449 24.90550497174263 378.59761882014573 56.407438930124044 101.64365173876286 403.96614108979702 80.907636493444443 1107.5698315333575 236.85645795613527 166.48989126086235 272.99128852784634 385.84179975092411 223.29977391660213 321.60175013542175 176.77326617389917 81.95726490020752 175.47522403299809 113.22214305307716 157.43897800147533 144.85332134366035 386.18652503937483 321.56208552420139 498.59710314124823 80.183871708810329 86.713506415486336 141.67355635762215 26.889777392148972 58.318629547953606 30.263313889503479 675.93393644690514 26.961985915899277
leaf_count=345 116 334 458 264 35 792 248 160 674 140 2080 424 268 408 582 385 553 370 115 324 306 222 238 598 484 937 109 113 222 38 94 44 976 40
internal_value=-0.00117922 -0.020703 0.0372234 -0.0054729 -0.0388011 0.0656714 0.0902582 0.024744 0.0168841 0.0095735 -0.0491945 -0.0142832 -0.0173932 0.00766792 -0.025964 0.0196667 0.0302781 -0.0282309 -0.0331895 -0.0219982 0.0478821 -0.0103125 0.0244356 -0.0237322 -0.0130913 0.0394583 -0.0043688 -0.00755148 -0.0282311 -0.00708835 -0.00897566 -0.0095837 0.00826023 -0.0106603
internal_weight=7790.7 5176.14 2614.56 2835.51 2340.63 755.885 264.065 1858.67 1258.43 853.027 1241.84 1701.99 1268.53 1133.52 1098.8 449.061 405.404 961.721 575.879 399.106 491.82 645.491 368.153 623.043 488.052 600.241 433.455 353.272 317.149 137.076 112.17 266.558 948.925 85.2806
internal_count=13496 8489 5007 4244 4245 1804 706 3203 2106 1437 2425 2596 1996 1648 1820 763 669 1613 1031 661 1098 974 623 1022 752 1097 600 491 546 207 172 378 1384 134
is_linear=0
shrinkage=0.0950269


Tree=9
num_leaves=27
num_cat=0
split_feature=2 1 1 1 1 2 8 2 1 8 8 6 8 9 1 1 1 6 2 8 2 6 6 1 9 6
split_gain=531.613 113.88 73.0428 22.2395 18.9061 18.1933 16.9825 11.2285 9.86944 4.94921 4.92844 3.64547 3.44221 3.28473 1.99199 1.74971 0.969935 0.878888 0.877949 0.688082 0.582566 0.201545 0.292054 0.199656 0.0821794 0.0719268
threshold=120.50000000000001 344.50000000000006 83.500000000000014 171.50000000000003 55.500000000000007 547.50000000000011 1.5000000000000002 30.500000000000004 96.500000000000014 1.5000000000000002 3.5000000000000004 1.1203448176383974 2.5000000000000004 62.583333333333336 165.50000000000003 238.50000000000003 208.50000000000003 1.5112373828887942 84.500000000000014 2.5000000000000004 60.500000000000007 1.6020833253860476 1.8271306157112124 128.50000000000003 119.75000000000001 2.0427083969116215
decision_type=8 10 8 10 10 10 2 10 8 2 2 10 2 10 8 10 10 10 10 2 10 10 10 10 10 8
left_child=2 3 4 10 -1 -3 16 -6 11 17 -2 -8 -5 20 19 -14 -4 -9 -18 -15 23 -19 -23 -10 25 -16
right_child=1 5 6 12 7 -7 8 9 13 -11 -12 -13 15 14 24 -17 18 21 -20 -21 -22 22 -24 -25 -26 -27
leaf_value=-0.063675467571229313 0.0036307384717766652 0.044401825653792762 -0.019919956985957617 0.01520527332767746 -0.04699091656599981 0.081542890853121122 -0.0077968406511876049 -0.037049736460742569 -0.0077968406511876049 -0.022022042139268564 0.01520527332767746 -0.022022042139268564 0.019794499546079845 -0.0077968406511876049 0 0.032181454680428156 -0.010541933304298409 -0.022022042139268564 0.0036307384717766652 -0.0021904591680955514 0.0036307384717766652 -0.03463242816722651 -0.022022042139268564 -0.00064037628152878738 0 0.0036307384717766652
leaf_weight=181.73167121782899 722.52827900648117 711.13703345600516 998.55960811674595 177.69456708431244 151.2904312517494 233.5544016584754 156.57575799524784 360.3988660722971 41.577557951211929 607.3574455846101 283.27731384336948 206.65593215823174 507.54103593528271 278.38397252559662 34.663418859243393 586.49866262078285 22.076294708997011 194.07726395875216 22.858540505170822 91.192515179514885 550.86899674683809 378.49400174617767 317.97928989678621 32.406116649508476 28.392566204071045 91.766899392008781
leaf_count=428 1084 1460 1573 302 339 624 229 659 62 940 448 346 827 426 49 1028 42 280 40 130 780 662 498 50 50 140
internal_value=-0.00108797 0.0285369 -0.0212754 0.0165644 -0.0339374 0.0558977 -0.0101067 -0.0303064 -0.00343821 -0.0271086 0.00559167 -0.0164676 0.0248189 0.000873915 -0.00465767 0.0272197 -0.0192902 -0.031442 -0.00116391 -0.00779684 0.00363074 -0.026713 -0.0296416 -0.00491149 0.00341592 0.00363074
internal_weight=7969.54 3222.23 4747.31 2277.54 2191.33 944.691 2555.98 2009.6 1512.48 1858.31 1005.81 363.232 1271.73 1149.25 524.399 1094.04 1043.49 1250.95 44.9348 369.576 624.853 890.551 696.473 73.9837 154.823 126.43
internal_count=13496 5773 7723 3689 3806 2084 3917 3378 2262 3039 1532 575 2157 1687 795 1855 1655 2099 82 556 892 1440 1160 112 239 189
is_linear=0
shrinkage=0.0950269


Tree=10
num_leaves=35
num_cat=0
split_feature=1 1 5 1 0 3 1 0 1 3 0 0 0 0 0 2 0 6 0 0 2 0 0 0 1 6 6 6 5 1 0 0 3 6
split_gain=433.163 98.6121 66.1863 27.7471 20.8722 19.9869 13.8423 8.63335 8.52154 6.90874 5.31321 4.46378 3.75896 3.57155 3.31008 2.84456 4.18864 2.37231 1.98273 1.65706 1.46706 1.24903 0.931637 0.555516 0.858122 0.394196 0.319284 0.304552 0.201907 0.140479 0.130976 0.144894 0.127702 0.00570336
threshold=125.50000000000001 287.50000000000006 1750.0000000000002 802.00000000000011 9.5000000000000018 1.5000000000000002 60.500000000000007 27.500000000000004 96.500000000000014 1.5000000000000002 9.5000000000000018 4.5000000000000009 8.5000000000000018 54.500000000000007 7.5000000000000009 36.500000000000007 47.500000000000007 1.1431878805160525 54.500000000000007 56.500000000000007 60.500000000000007 26.500000000000004 55.500000000000007 55.500000000000007 68.500000000000014 0.96976229548454296 1.987122178077698 2.093570470809937 1750.0000000000002 150.50000000000003 47.500000000000007 55.500000000000007 1.5000000000000002 2.093570470809937
decision_type=8 10 8 10 2 2 10 2 10 2 2 2 2 2 2 10 2 10 2 2 10 2 2 2 10 10 10 10 10 10 2 2 2 10
left_child=2 5 6 14 -5 10 -1 21 12 18 -2 -7 -4 -13 -3 -14 -17 -10 -9 29 -11 25 -20 -18 -25 -8 32 -27 -21 -15 -22 -32 -19 -23
right_child=1 3 8 4 -6 11 7 9 17 20 -12 13 15 19 -16 16 23 26 22 28 30 33 -24 24 -26 27 -28 -29 -30 -31 31 -33 -34 -35
leaf_value=-0.044579815475604953 0.0093794789743687473 0.040724765390055852 -0.0068732708439582634 0.10582244658977075 0.049566411602881458 0.026647876136749037 -0.0032735731080530527 -0.035457661966643898 0.00085168422585864506 -0.021630050727848904 0.00085168422585864506 0.0093794789743687473 -0.030922705040582612 0.012436845554533719 0.026647876136749037 -0.021988687814821235 -0.0068732708439582634 -0.0068732708439582634 -0.022990102623363748 0.0093794789743687473 -0.0057574285131486106 -0.0018525278119273026 -0.02934514257390336 -0.017340469782196128 -0.0068732708439582634 -0.020545658667166237 0 -0.0081087778886459166 0.012148746915836901 0.0238815597410348 0.00085168422585864506 -0.0030139373209982123 -0.0014018086456904397 0
leaf_weight=670.01594260893762 274.71311913430691 467.58468323945999 333.70373216643929 90.989136382937431 262.92034073080868 351.28667533397675 52.740254253149033 285.98471243679523 419.54378361999989 42.86349381506443 696.54630102217197 196.51504503190517 111.81120501458645 200.47828531265259 558.73713279888034 321.5607499089092 111.45770052075386 161.25656922161579 77.637764051556587 49.59014804661274 27.376915529370308 40.500883504748344 453.59162220358849 114.6537844017148 342.26022611558437 399.94999304413795 58.074351906776428 118.04075826704502 230.00854982435703 331.01690213382244 26.982594281435013 65.045898586511612 135.37246049940586 30.842563092708588
leaf_count=1289 411 847 456 307 592 567 75 582 604 79 1123 309 207 275 1033 516 161 239 110 80 44 55 763 182 507 623 82 156 355 515 39 93 185 35
internal_value=-0.000992387 0.02281 -0.0211066 0.042719 0.066278 0.0105767 -0.0322227 -0.0263355 -0.00869403 -0.0322402 0.000851684 0.0179073 -0.0132169 0.0136839 0.0328548 -0.0163234 -0.0134171 -0.000529632 -0.0354577 0.017211 -0.0105225 -0.0161156 -0.0247441 -0.00750464 -0.0100181 -0.0175805 -0.00687327 -0.0185407 0.00937948 0.0206775 -0.00216349 0 -0.00687327 -0.00136691
internal_weight=8111.65 3710.39 4401.27 1380.23 353.909 2330.16 2291.57 1621.56 2109.69 979.483 971.259 1358.9 1335.45 1007.61 1026.32 1001.74 889.932 774.247 817.214 811.094 162.269 642.074 531.229 568.372 456.914 570.731 354.703 517.991 279.599 531.495 119.405 92.0285 296.629 71.3434
internal_count=13496 6414 7082 2779 899 3635 3943 2654 3139 1710 1534 2101 2029 1534 1880 1573 1366 1110 1455 1225 255 944 873 850 689 854 506 779 435 790 176 132 424 90
is_linear=0
shrinkage=0.0950269


Tree=11
num_leaves=32
num_cat=0
split_feature=8 1 1 1 1 3 1 9 1 3 7 1 1 3 4 6 9 1 6 7 6 6 1 6 6 6 6 6 6 4 9
split_gain=358.29 67.3961 60.732 20.8142 17.4952 11.8451 9.63119 8.27472 6.91105 6.44466 4.44587 3.61921 2.26963 2.19036 1.96396 2.65013 1.45759 1.41828 1.00389 0.756983 0.989868 1.17658 0.255424 0.184136 0.151255 0.141564 0.240261 0.0970621 0.218337 0.12676 0.0492474
threshold=2.5000000000000004 509.50000000000006 104.50000000000001 230.50000000000003 55.500000000000007 1.5000000000000002 300.50000000000006 30.250000000000004 119.50000000000001 1.5000000000000002 6.5000000000000009 751.00000000000011 165.50000000000003 1.5000000000000002 2001.5000000000002 1.5016666650772097 128.50000000000003 127.50000000000001 0.99627572298049938 6.5000000000000009 0.64031249284744274 0.98648402094841015 96.500000000000014 0.71572223305702221 0.66758748888969432 1.4769936800003054 3.3045635223388676 1.250999987125397 1.5358309745788576 2012.5000000000002 40.250000000000007
decision_type=2 8 10 10 10 2 10 10 10 2 2 10 10 2 2 10 10 10 10 2 10 10 10 10 10 10 10 10 10 2 10
left_child=2 3 4 8 -1 7 9 -6 19 12 -3 -12 18 -10 -9 -16 -8 27 -4 20 -2 24 -23 -19 -22 -20 -27 29 -29 -11 -25
right_child=1 10 6 -5 5 -7 16 14 13 17 11 -13 -14 -15 15 -17 -18 23 25 -21 21 22 -24 30 -26 26 -28 28 -30 -31 -32
leaf_value=-0.051836156534863093 -0.011374164796813984 0.0410271179657824 -0.007503501734900761 0.027391583310882494 -0.037067750531876081 -0.013512128118386929 0.0063176071760352908 -0.01961596602854215 0.0065098516104082869 -0.0030312477550251023 0.03498774838327192 0.08445778630630224 -0.0030312477550251023 0.015834096839236381 -0.036715694576577633 -0.021920137932128988 0.02352979881850787 0.0022298273564671234 -0.013512128118386929 0.0065098516104082869 0 -0.010200292856467154 -0.00018530799899310103 0.0022298273564671234 0.0053151906589261021 -0.007503501734900761 -0.013512128118386929 0.0022298273564671234 -0.0030312477550251023 0.00030408533097923068 0.0063176071760352908
leaf_weight=194.39313519001007 53.908745631575584 405.72432799264789 77.170882448554039 1031.3472952693701 170.73137282952666 709.39692925103009 56.624534701928496 1082.9344089850783 322.40304337441921 119.06366775929928 36.550831854343414 109.07318709418178 281.68361238390207 917.75292264670134 302.27218157798052 791.60666165500879 106.45815831236541 25.050893992185593 260.23201198875904 32.096677958965302 30.05198347568512 51.201041527092457 75.62449586391449 29.874495521187782 180.15385061502457 383.34287189692259 33.550684332847595 67.92510312795639 26.294194750487804 25.811697900295258 250.70702077448368
leaf_count=420 89 832 114 1742 364 1043 115 1666 490 167 73 321 451 1390 559 1228 228 37 418 46 42 79 112 46 264 569 62 87 39 39 364
internal_value=-0.000977401 0.0234637 -0.0169302 0.0168364 -0.0245531 -0.0222993 -0.00247115 -0.0257198 0.00985149 -0.00489942 0.0531391 0.0735983 -0.00924412 0.0133609 -0.0230915 -0.0269783 0.0175346 0.00318163 -0.0119758 -0.000341169 -0.00208475 0 -0.00623685 0.00631761 0.00435932 -0.0134315 -0.00872367 -0.00185795 0 -0.00303125 0.00631761
internal_weight=8241.01 3245.89 4995.12 2694.54 3251.33 3056.94 1743.79 2347.54 1663.19 1580.71 551.348 145.624 1035.98 1240.16 2176.81 1093.88 163.083 544.727 754.296 423.037 390.94 337.031 126.826 305.632 210.206 677.126 416.894 239.095 94.2193 144.875 280.582
internal_count=13496 5480 8016 4254 5280 4860 2736 3817 2512 2393 1226 394 1614 1880 3453 1787 343 779 1163 632 586 497 191 447 306 1049 631 332 126 206 410
is_linear=0
shrinkage=0.0950269


Tree=12
num_leaves=35
num_cat=0
split_feature=2 5 2 5 0 2 0 2 0 5 5 8 2 3 2 0 0 2 5 8 0 0 0 0 9 0 0 0 5 0 0 9 9 9
split_gain=294.189 60.5741 52.1856 22.8775 16.3387 13.1687 11.0839 7.8916 7.67855 6.07288 5.96964 4.5142 4.44501 3.18949 2.75921 2.39592 9.5293 2.29782 1.77071 1.60712 1.56244 3.17531 1.07571 1.05393 0.892101 0.800686 0.645573 2.11073 0.617922 0.500211 0.273586 0.188116 0.207886 0.161546
threshold=120.50000000000001 1750.0000000000002 547.50000000000011 3950.0000000000005 7.5000000000000009 30.500000000000004 49.500000000000007 82.500000000000014 8.5000000000000018 1100.0000000000002 7100.0000000000009 2.5000000000000004 36.500000000000007 1.5000000000000002 219.50000000000003 54.500000000000007 27.500000000000004 199.50000000000003 1.0000000180025095e-35 1.5000000000000002 8.5000000000000018 50.500000000000007 56.500000000000007 1.5000000000000002 31.250000000000004 93.500000000000014 56.500000000000007 92.500000000000014 1750.0000000000002 55.500000000000007 47.500000000000007 68.250000000000014 53.750000000000007 38.750000000000007
decision_type=8 8 10 10 2 10 2 10 2 10 8 2 10 2 8 2 2 10 10 2 2 2 2 2 10 2 2 2 8 2 2 10 10 10
left_child=1 5 3 4 14 -1 -6 12 23 18 -4 29 -3 15 -2 16 -11 28 -10 -9 -14 -22 -17 -7 -15 -19 -23 -28 -13 -8 -26 32 33 -25
right_child=2 7 10 -5 6 8 11 19 9 13 -12 17 20 24 -16 22 -18 25 -20 -21 21 26 -24 31 30 -27 27 -29 -30 -31 -32 -33 -34 -35
leaf_value=-0.051357083985853189 0.015638027700350311 -0.024101972143921534 0.037165974957162999 0.031399421960771674 0.002438291643476964 -0.0133091261475453 0.0084383478048690817 -0.0035732082805503538 0 -0.018353612093154652 0.078094791032880848 0.002438291643476964 -0.0035732082805503538 -0.016235670481171877 0.031170704318349559 -0.017300402666778864 -0.037282862231854084 0.023882158190445195 -0.037282862231854084 0.002438291643476964 -0.015428597948786166 -0.0035732082805503538 -0.023091901913493605 -0.0038069515812757231 -0.0067235692610284102 0.014199617586080064 -0.013975495644973631 -0.0035732082805503538 0.0096919742041148178 0.002438291643476964 0 0.002438291643476964 -0.0070156940847288431 0.002438291643476964
leaf_weight=168.12383140064776 410.25885903835297 139.38394290953875 173.72550418972969 711.09526193141937 473.02932888641953 70.826956897974014 93.983321383595467 108.36439561843872 23.669829919934273 576.65638069063425 113.25918654352427 34.702716499567032 314.61385506391525 112.6527187526226 313.77016864717007 171.68867982923985 395.97303193062544 351.76790779083967 121.62448867410421 867.88417745381594 346.91421628929675 189.5716665238142 616.77594745904207 23.926588594913483 69.921427339315414 182.51101885735989 194.30779582262039 203.50017283856869 348.56019772589207 191.42631818260998 83.576892971992493 62.26818773150444 31.358307391405106 51.637218683958054
leaf_count=365 606 249 358 1233 797 113 140 178 37 865 318 57 430 181 541 243 720 585 273 1232 519 264 1000 38 100 292 288 303 518 328 117 88 46 74
internal_value=-0.000880068 -0.0156519 0.0205285 0.0165418 0.0117592 -0.0256494 0.0062938 -0.00450453 -0.0232086 -0.0250023 0.0577902 0.0125085 -0.00905294 -0.0226964 0.0234967 -0.0242953 -0.028324 0.015701 -0.0372829 0.00190653 -0.00675522 -0.00892923 -0.018326 -0.00552512 -0.0103055 0.0199762 -0.00400607 -0.00711829 0.00842301 0.00243829 -0.00332009 -0.00011209 -0.00285254 0
internal_weight=8343.31 4945.22 3398.09 3111.11 2400.01 2580.68 1675.98 2364.54 2412.56 2172.54 286.985 1202.95 1388.29 2027.25 724.029 1761.09 972.629 917.542 145.294 976.249 1248.91 934.294 788.465 240.017 266.151 534.279 587.38 397.808 383.263 285.41 153.498 169.19 106.922 75.5638
internal_count=13496 7723 5773 5097 3864 4260 2717 3463 3895 3536 676 1920 2053 3226 1147 2828 1585 1452 310 1410 1804 1374 1243 359 398 877 855 591 575 468 217 246 158 112
is_linear=0
shrinkage=0.0950269


Tree=13
num_leaves=35
num_cat=0
split_feature=1 1 5 8 0 4 1 1 0 0 1 0 8 1 0 5 5 1 7 0 0 0 5 8 4 4 5 0 0 9 1 0 5 0
split_gain=243.09 51.5119 43.9703 20.2744 14.1287 8.24167 7.20021 6.76472 4.66507 4.27297 3.88095 2.94817 2.79926 2.53726 2.10941 2.07083 1.97602 1.66832 1.50629 1.64866 7.7744 4.05981 1.31728 1.14963 0.959955 1.49997 0.701658 0.688238 0.608662 0.537175 1.0207 0.439703 0.307402 0.236956
threshold=135.50000000000003 691.00000000000011 1750.0000000000002 2.5000000000000004 9.5000000000000018 2013.5000000000002 238.50000000000003 102.50000000000001 7.5000000000000009 6.5000000000000009 5025.0000000000009 8.5000000000000018 1.5000000000000002 60.500000000000007 47.500000000000007 1.0000000180025095e-35 1750.0000000000002 1000.5000000000001 3.5000000000000004 27.500000000000004 54.500000000000007 56.500000000000007 1750.0000000000002 1.5000000000000002 2019.5000000000002 2013.5000000000002 3950.0000000000005 18.500000000000004 4.5000000000000009 44.750000000000007 124.50000000000001 1.5000000000000002 3950.0000000000005 98.500000000000014
decision_type=8 10 8 2 2 2 8 10 2 2 10 2 2 10 2 10 8 10 2 2 2 2 10 2 2 2 8 2 2 10 10 2 8 2
left_child=2 3 5 8 17 15 16 11 -2 31 -6 -4 22 -11 32 -1 -5 -3 19 27 -21 -22 -13 -9 25 33 -8 28 -17 -15 -31 -7 -14 -18
right_child=1 4 7 6 10 9 26 23 -10 13 -12 12 14 29 -16 18 24 -19 -20 20 21 -23 -24 -25 -26 -27 -28 -29 -30 30 -32 -33 -34 -35
leaf_value=0.0017229663872363674 0.015145042496008575 0.029995323571566247 -0.0040897150878488296 0.0017229663872363674 0.029995323571566247 -0.0093616093206006987 0.017349690672779521 -0.0040897150878488296 0.0017229663872363674 -0.036812156766252421 0.064639705794329511 -0.027617355616928119 -0.015069155552695569 -0.017537317535719247 -0.0040897150878488296 -0.0053459560772990047 0.012281705828632385 0.086265867753259368 -0.0029754924411110411 -0.035292594864265975 0.00085483047578866693 -0.017710240117420825 -0.011759611991062529 0.0017229663872363674 0.017110050213567068 0.0017229663872363674 0.026639528132241807 -0.003639375158470974 -0.019789156933321839 -0.030170087678636052 -0.00046036091460343882 0.00083646403115719464 -0.0040897150878488296 0.0024413112341344317
leaf_weight=31.327278286218643 213.28389002382755 57.707764118909836 345.63795426860452 71.187996290624142 296.46479111537337 27.801039576530457 561.94548465311527 147.276486068964 611.88165014237165 540.82774136774242 28.570446459576488 116.18060199916363 233.78557796217501 421.10190431028605 430.73269683867693 111.82571744918823 716.49407547712326 81.276680149137974 97.38901524245739 232.08483930677176 128.99917143583298 327.21410202234983 297.51325869560242 791.36945101618767 69.947810813784599 102.10119758546352 656.65713669359684 154.44104874134064 102.85847984999418 264.97294025123119 20.627127230167389 47.455910831689835 30.719739377498627 75.910598486661911
leaf_count=51 308 125 473 114 596 46 914 221 1006 982 95 203 360 620 635 161 1034 243 140 420 185 513 452 1122 131 148 1099 215 163 461 31 74 45 110
internal_value=-0.000864536 0.0179975 -0.0145515 0.0132188 0.0467718 -0.0232885 0.0178574 -0.0051663 0.00172297 -0.0287762 0.0304196 -0.00917061 -0.0117337 -0.0301039 -0.00721617 -0.0165129 0.0112498 0.0722675 -0.0171873 -0.0182582 -0.0214655 -0.0124518 -0.0180458 0.000991182 0.0124395 0.0102495 0.0229703 -0.0108045 -0.0143572 -0.023528 -0.0294844 -0.00322519 -0.0138011 0.0116217
internal_weight=8445.57 3543.43 4902.14 3079.41 464.02 2508.93 2254.24 2393.22 825.166 1322.79 325.035 1454.57 1108.93 1247.53 695.238 1186.14 1035.64 138.984 1154.81 1057.42 688.298 456.213 413.694 938.646 964.454 894.506 1218.6 369.125 214.684 706.702 285.6 75.257 264.505 792.405
internal_count=13496 5923 7573 4864 1059 4062 3550 3511 1314 2214 691 2168 1695 2094 1040 1848 1537 368 1797 1657 1118 698 655 1343 1423 1292 2013 539 324 1112 492 120 405 1144
is_linear=0
shrinkage=0.0950269


Tree=14
num_leaves=35
num_cat=0
split_feature=8 1 1 2 1 1 1 2 8 4 9 4 1 9 7 6 2 6 8 2 6 6 1 6 4 2 4 7 4 6 9 2 4 1
split_gain=203.169 39.0877 32.7737 16.6596 10.7063 7.73878 5.97271 5.6877 3.29791 2.7412 2.6354 2.48309 2.44355 2.05753 1.98228 1.83136 1.49967 1.49538 1.30552 1.14556 1.11781 1.5006 1.10813 0.985833 0.551875 0.522743 0.510596 0.424233 0.352033 0.286321 0.203626 0.160044 0.152973 0.145487
threshold=2.5000000000000004 509.50000000000006 104.50000000000001 30.500000000000004 150.50000000000003 55.500000000000007 300.50000000000006 822.00000000000011 1.5000000000000002 2019.5000000000002 59.166666666666679 1999.5000000000002 230.50000000000003 89.250000000000014 3.5000000000000004 1.250999987125397 207.50000000000003 1.2356245517730715 3.5000000000000004 100.50000000000001 0.96976229548454296 1.7771241664886477 125.50000000000001 1.5016666650772097 625.00000000000011 104.50000000000001 2021.5000000000002 3.5000000000000004 2015.5000000000002 0.72057694196701061 142.25000000000003 73.500000000000014 2003.5000000000002 208.50000000000003
decision_type=2 8 10 10 10 10 10 8 2 2 10 2 10 10 2 10 10 10 2 10 10 10 10 10 2 10 2 2 2 10 10 10 2 10
left_child=2 4 3 -1 14 -5 8 -3 16 12 11 -7 32 22 26 -12 33 -13 24 -8 27 -22 -10 -19 29 -20 -2 30 -26 -16 -15 -24 -6 -4
right_child=1 7 6 5 9 10 19 -9 13 -11 15 17 -14 20 18 -17 -18 23 25 -21 21 -23 31 -25 28 -27 -28 -29 -30 -31 -32 -33 -34 -35
leaf_value=-0.043924702433145883 -0.0051692872315500221 0.030945457164041956 -0.010066587330777562 -0.030001151572999717 0.011871024522927114 -0.010066587330777562 0.0047926987069597899 0.063310620077852459 -0.0014766709303892301 0.025535097856763701 -0.022244204699661225 -0.010066587330777562 0.01783637514333157 0.0047926987069597899 0 -0.010066587330777562 0.0047926987069597899 -0.022244204699661225 0 0.016912333911567132 -0.010066587330777562 0.0033818834770707896 0.00165801388828528 -0.014517838270519695 -0.0080010054299427709 0.0098912466404756233 0.0035176404799266334 -0.0035713921607933899 0.00040490649721343027 0.0058782917376319216 0 0.0047926987069597899 0.0098912466404756233 -0.0026369443119088863
leaf_weight=198.12871123105288 212.79041139036417 501.96720345318317 478.87035401910543 193.70452024042606 559.21356339007616 992.93499299883842 27.715992889367044 92.272476825863123 278.49250146001577 135.3727725893259 467.11765967309475 244.16454717703164 1005.5874935388565 50.779882073402405 107.97857940196991 230.46228469908237 28.651478424668312 190.66132467240095 37.442028757184744 139.08505634404719 243.31661882996559 50.782574534416199 71.16436193883419 874.20220825821161 39.195982158184052 240.32611025869846 39.891598850488663 61.840677946805954 51.340532153844833 201.64217391610146 31.307932287454605 262.79522939026356 157.81710423529148 37.794792987406254
leaf_count=412 315 976 740 372 835 1414 61 250 381 247 791 355 1591 76 151 338 50 325 54 282 396 80 107 1273 60 364 61 91 77 275 47 365 224 60
internal_value=-0.000809607 0.0171832 -0.0126754 -0.0181057 0.0121467 -0.0160776 -0.00202746 0.0389235 -0.00395094 0.0162883 -0.0144873 -0.0124512 0.0145339 -0.000629862 0.00349419 -0.0202502 -0.00975848 -0.0156236 0.00616796 0.0135363 -0.00550789 -0.00865447 0.00274363 -0.0175014 0.00194842 0.00989125 -0.00310266 0.000529473 -0.00318973 0.0039896 0.0047927 0.0047927 0.00989125 -0.0100666
internal_weight=8536.81 3382.84 5153.97 3391.38 2788.6 3193.25 1762.6 594.24 1595.8 1857.99 2999.54 2301.96 1722.62 1050.48 930.607 697.58 545.317 1309.03 677.925 166.801 438.028 294.099 612.452 1064.86 400.157 277.768 252.682 143.928 90.5365 309.621 82.0878 333.96 717.031 516.665
internal_count=13496 5480 8016 5280 4254 4868 2736 1226 2393 2897 4496 3367 2650 1543 1357 1129 850 1953 981 343 690 476 853 1598 563 418 376 214 137 426 123 472 1059 800
is_linear=0
shrinkage=0.0950269


Tree=15
num_leaves=35
num_cat=0
split_feature=8 5 1 1 1 0 0 0 0 0 6 0 0 1 0 0 0 0 3 0 5 1 5 0 0 0 0 0 0 0 5 5 1 0
split_gain=167.936 41.3042 32.6967 13.5736 10.5955 7.62645 6.6467 4.96292 14.0216 9.73063 5.75342 3.32251 4.80406 3.23959 3.18742 2.94239 2.73229 2.34595 2.00207 1.91764 1.91464 1.75643 1.73179 1.79481 3.1683 2.29547 1.50028 7.81472 2.55751 1.4183 1.50471 1.18197 1.05117 1.00617
threshold=2.5000000000000004 1750.0000000000002 691.00000000000011 127.50000000000001 212.50000000000003 4.5000000000000009 9.5000000000000018 49.500000000000007 27.500000000000004 55.500000000000007 1.7487499713897707 6.5000000000000009 47.500000000000007 5025.0000000000009 9.5000000000000018 107.50000000000001 97.500000000000014 10.500000000000002 1.5000000000000002 18.500000000000004 3400.0000000000005 165.50000000000003 3950.0000000000005 54.500000000000007 56.500000000000007 8.5000000000000018 58.500000000000007 56.500000000000007 64.500000000000014 55.500000000000007 2250.0000000000005 3950.0000000000005 90.500000000000014 12.500000000000002
decision_type=2 8 8 10 10 2 2 2 2 2 10 2 2 8 2 2 2 2 2 2 10 10 10 2 2 2 2 2 2 2 10 10 10 2
left_child=1 5 4 15 11 -1 -4 8 10 -9 17 32 -13 -8 -5 16 22 -7 -10 -12 -16 -22 23 25 -25 -3 27 -11 -28 -14 -31 -6 -2 -19
right_child=2 3 6 14 31 7 13 9 18 26 19 12 29 -15 20 -17 -18 33 -20 -21 21 -23 -24 24 -26 -27 28 -29 -30 30 -32 -33 -34 -35
leaf_value=-0.0016586385165848132 0 -0.0040644825596375276 0.057523628002867297 0.017556571301633295 0.014142888596079654 -0.03309481796602768 0.025691571910255683 0.0092826055523900237 -0.038128095921823583 -0.0049546688599886243 -0.013072719961399422 -0.0074210998816629549 0.0095774186910885378 0.056690117360803233 0.00043987756156243775 -0.022928117892324525 0.00037163297405770802 0 -0.0086745749437739314 0.00056910783904032117 0.00037163297405770802 0.02278949146376218 0.00037163297405770802 0.00037163297405770802 -0.010372275873594303 -0.015336148887953031 0.0022891162578738307 -0.044084700569341898 -0.016208734071779883 -0.0018830173217966851 0.010500168925585618 0.022515459373095799 0.011836539037121814 -0.016062360319888853
leaf_weight=221.92582800239325 64.155323054641485 339.96060597151518 142.6879398971796 199.64168625324965 913.55462117493153 144.44574420899153 252.15685195475817 107.89105376601219 545.0232072295621 102.60019294731319 115.87567559629679 263.71912696957588 521.45461970567703 28.397219885140657 467.93959078658372 80.529696464538574 127.45665340125561 27.171649783849716 55.147121772170067 206.11827879399061 41.003195971250534 48.171524673700333 60.754045367240906 302.66702741384506 308.48483736813068 473.15916117466986 52.897262096405029 90.727749481797218 760.073784628883 280.00034984946251 90.718119859695435 515.82374607026577 341.49050657451153 308.12031627446413
leaf_count=329 87 465 340 300 1442 259 487 163 978 151 168 415 707 85 735 135 200 41 84 281 63 96 90 416 457 702 80 189 1179 431 140 836 510 455
internal_value=-0.000727415 -0.0114902 0.0155465 -0.00241043 0.0117412 -0.0194545 0.0396419 -0.0209346 -0.0250668 -0.0151099 -0.0156177 0.00602589 0.0030754 0.0256916 0.00789197 -0.0071487 -0.00588441 -0.0220317 -0.036163 -0.00464206 0.0034974 0.0143409 -0.00729604 -0.00811836 -0.00363439 -0.0110869 -0.0180424 -0.0273016 -0.0148093 0.0064599 0.00136158 0.0176472 0.0118365 -0.0146237
internal_weight=8601.94 5187.79 3414.16 2449.77 2990.92 2738.02 423.242 2516.09 1401.9 1114.19 801.732 1561.54 1155.89 280.554 756.756 1693.01 1612.48 479.738 600.17 321.994 557.114 89.1747 1485.03 1424.27 611.152 813.12 1006.3 193.328 812.971 892.173 370.718 1429.38 405.646 335.292
internal_count=13496 8016 5480 3659 4568 4357 912 4028 2266 1762 1204 2290 1693 572 1194 2465 2330 755 1062 449 894 159 2130 2040 873 1167 1599 340 1259 1278 571 2278 597 496
is_linear=0
shrinkage=0.0950269


Tree=16
num_leaves=35
num_cat=0
split_feature=2 1 5 2 2 0 0 5 0 3 1 0 5 0 0 1 0 0 5 1 2 0 0 0 1 7 0 0 0 5 9 2 7 0
split_gain=139.623 32.7362 26.4344 13.1864 11.5416 9.40271 7.97727 6.44978 4.75925 3.48809 3.24044 3.02865 2.5733 2.10907 7.12629 2.04243 1.84885 1.81203 1.75708 1.38999 1.29282 1.1086 1.12531 1.08969 1.00709 0.797619 0.240645 0.231458 1.38158 0.200698 0.185565 0.133004 0.0590522 0.0505354
threshold=104.50000000000001 344.50000000000006 1750.0000000000002 858.50000000000011 30.500000000000004 7.5000000000000009 49.500000000000007 1100.0000000000002 55.500000000000007 1.5000000000000002 119.50000000000001 7.5000000000000009 3400.0000000000005 27.500000000000004 33.500000000000007 125.50000000000001 56.500000000000007 42.500000000000007 1.0000000180025095e-35 62.500000000000007 62.500000000000007 2.5000000000000004 54.500000000000007 107.50000000000001 122.50000000000001 3.5000000000000004 63.500000000000007 97.500000000000014 56.500000000000007 2250.0000000000005 49.750000000000007 78.500000000000014 2.5000000000000004 113.50000000000001
decision_type=8 10 10 10 10 2 2 8 2 2 8 2 10 2 2 10 2 2 10 10 10 2 2 2 10 2 2 2 2 8 10 10 2 2
left_child=2 5 4 11 -1 10 -7 18 24 13 29 -3 33 19 -15 21 -16 -13 -6 -9 32 -4 -23 27 -8 -14 -19 28 -24 -2 -22 -25 -11 -10
right_child=1 3 15 -5 7 6 8 9 12 20 -12 17 25 14 16 -17 -18 26 -20 -21 30 22 23 31 -26 -27 -28 -29 -30 -31 -32 -33 -34 -35
leaf_value=-0.038850327101029432 0.00022639341264852668 0.027979022939943757 -0.0020014249283743625 0.056396885603342273 0 0.00022639341264852668 0.003382157935701258 -0.018101750145597183 0.00022639341264852668 -0.0045895617650107455 0.016277579824055838 0.016277579824055838 0.00022639341264852668 -0.026987508421409439 -0.0094055169426700176 0.00022639341264852668 -0.016265708325023671 0.031405541948869686 -0.026987508421409439 -0.0094055169426700176 0.00022639341264852668 -0.010077924844160882 -0.0020014249283743625 -0.01524684787607513 0.014497313137173449 0.014094540274865288 0.016571672468574387 -0.0020014249283743625 -0.0089414762866785024 0.0048066445122647451 -0.0045895617650107455 -0.0020014249283743625 -0.0094055169426700176 0.0064939890737793155
leaf_weight=195.27375783212483 90.572037234902382 445.31105020642281 281.60618444159627 102.07506708800793 27.118671774864197 508.25897256284952 144.25889873504639 213.07617375254631 506.93510937690735 68.698316335678101 767.72038708627224 175.22329765092582 29.811075463891029 314.58265597373247 359.99197316169739 333.61762092262506 708.97486913204193 126.09381681866944 146.00317515432835 683.51924126595259 186.61882270872593 374.77864301018417 219.98358100652695 44.474422216415405 633.48441633582115 137.30968552827835 281.63997048418969 99.919642597436905 265.85025737434626 54.495022341609001 34.804325118660927 23.083808243274689 73.596279956400394 26.400482937693596
leaf_count=395 121 756 385 269 42 810 187 343 791 95 1144 327 51 536 512 473 1089 252 287 948 255 542 306 72 918 219 506 155 384 74 54 34 123 41
internal_value=-0.00062231 0.0122647 -0.0118119 0.0258304 -0.017066 0.0067248 0.00288456 -0.0151247 0.00778906 -0.0134857 0.0145912 0.0211917 0.00175414 -0.0148835 -0.0175084 -0.00197117 -0.0128397 0.0162776 -0.0269875 -0.0102633 -0.00392754 -0.00422924 -0.00592053 -0.00301032 0.0127983 0.0114814 0.0232618 -0.00200142 -0.00404704 0.00038533 0.000226393 -0.0127475 -0.00940552 0.000226393
internal_weight=8685.16 4029.59 4655.57 1130.34 3012.26 2899.25 1986.46 2816.98 1478.2 2643.86 912.787 1028.27 700.456 2280.14 1383.55 1643.31 1068.97 582.957 173.122 896.595 363.718 1309.7 1028.09 653.312 777.743 167.121 407.734 585.753 485.834 145.067 221.423 67.5582 142.295 533.336
internal_count=13496 6466 7030 2110 4679 4356 3017 4284 2207 3955 1339 1841 1102 3428 2137 2351 1601 1085 329 1291 527 1878 1493 951 1105 270 758 845 690 195 309 106 218 832
is_linear=0
shrinkage=0.0950269


Tree=17
num_leaves=35
num_cat=0
split_feature=2 2 5 0 0 2 5 5 6 0 6 4 6 5 2 2 3 6 2 5 2 6 9 4 6 6 6 0 0 6 2 5 2 2
split_gain=112.482 25.6622 22.7285 12.3834 13.5494 9.44377 6.09798 5.80028 5.58088 5.18673 3.21474 3.0377 4.7142 2.35873 2.16792 1.97514 1.84645 1.81274 1.45389 1.1942 1.12985 1.09752 1.00169 0.951551 0.5865 0.572036 0.811715 0.501541 0.368386 0.336315 0.301428 0.255783 0.253442 0.172605
threshold=104.50000000000001 547.50000000000011 1750.0000000000002 7.5000000000000009 49.500000000000007 30.500000000000004 7100.0000000000009 1100.0000000000002 1.7395651936531069 55.500000000000007 0.60050001740455639 1999.5000000000002 1.5693376064300539 3950.0000000000005 219.50000000000003 200.50000000000003 1.5000000000000002 0.90121948719024669 125.50000000000001 1.0000000180025095e-35 36.500000000000007 1.8469899892807009 43.250000000000007 2023.5000000000002 2.4974999427795415 1.250999987125397 0.99627572298049938 113.50000000000001 109.50000000000001 1.5758116841316225 858.50000000000011 3400.0000000000005 54.500000000000007 73.500000000000014
decision_type=8 10 10 2 2 10 8 8 10 2 8 2 10 10 8 8 2 10 10 10 10 10 10 2 10 10 10 2 2 10 10 10 10 10
left_child=2 3 5 10 -5 -1 -3 19 9 15 -2 16 -13 27 -12 -6 21 33 -10 -7 24 28 -23 29 -19 26 -22 -11 -9 -14 -8 -28 -18 -4
right_child=1 6 17 4 8 7 30 11 18 13 14 12 23 -15 -16 -17 32 20 -20 -21 25 22 -24 -25 -26 -27 31 -29 -30 -31 -32 -33 -34 -35
leaf_value=-0.03506778500655474 0.00012937050584927625 0.022057950415418515 -0.017093858522832739 0.00012937050584927625 0.0075986719930568186 0 0.023684896421315153 -0.012982011086966347 0.00012937050584927625 0.00012937050584927625 0.011801347003874257 -0.023049927111075685 0 0.012720285359781517 0.022041271868691717 0.018622126524827975 -0.004954349346738939 -0.0044160601696846069 0.022057950415418515 -0.024392136450599393 0.00012937050584927625 -0.011093401432695099 -0.004954349346738939 0.00012937050584927625 -0.017592323869917083 0.00012937050584927625 -0.0044160601696846069 0.0094988110657100409 -0.004954349346738939 -0.011445008594379386 0.06465496899788932 0.00012937050584927625 0.00012937050584927625 -0.0034185111010129735
leaf_weight=198.75581421516836 71.596026077866554 190.04785247892141 40.050276696681976 661.12530165724456 517.21821190416813 27.118671774864197 72.315658420324326 639.90325415879488 22.31458106637001 620.0068989219144 613.65507088601589 496.85758598893881 33.20042473077774 111.78769351541996 571.90270554274321 307.66206485778093 37.390421748161316 74.734607387334108 209.35488910414279 148.97887305915356 99.318574868142605 195.8531826287508 181.53795850276947 37.988846138119698 26.843966603279114 933.66492101550102 371.81520152837038 31.195312440395355 38.970317125320435 809.53968789428473 60.452119927853346 31.688801854848862 191.7592706233263 68.117314130067825
leaf_count=395 101 358 71 1100 705 42 141 961 37 970 867 838 35 182 911 469 58 115 399 287 148 282 267 52 52 1290 528 49 53 1145 177 45 264 102
internal_value=-0.000620141 0.0108971 -0.0106383 0.00846302 0.00440294 -0.0154785 0.0356529 -0.0137165 0.00966633 0.00725387 0.0160883 -0.0121542 -0.0154365 0.00130843 0.0172631 0.0123638 -0.00826966 -0.00151266 0.022058 -0.0243921 -0.000478318 -0.0099087 -0.00495435 -0.0103913 -0.00896149 0.000129371 -0.00297812 0.000129371 -0.0123367 -0.0110688 0.0514778 -0.00441606 0 -0.0120148
internal_weight=8744.72 4060.63 4684.09 3737.82 2480.66 3037.85 322.816 2839.1 1819.54 1587.87 1257.15 2663 1377.59 762.99 1185.56 824.88 1285.41 1646.23 231.669 176.098 1538.07 1056.26 377.391 880.729 101.579 1436.49 502.823 651.202 678.874 842.74 132.768 403.504 229.15 108.168
internal_count=13496 6466 7030 5790 3911 4679 676 4284 2811 2375 1879 3955 2070 1201 1778 1174 1885 2351 436 329 2178 1563 549 1232 167 2011 721 1019 1014 1180 318 573 322 173
is_linear=0
shrinkage=0.0950269


Tree=18
num_leaves=35
num_cat=0
split_feature=8 5 2 2 5 5 5 6 3 5 2 2 4 6 4 6 2 6 5 6 9 6 4 6 8 2 6 5 8 2 9 4 4 4
split_gain=96.0401 24.7417 19.0614 8.69991 8.30886 5.04784 4.3468 3.38999 3.9454 3.18427 2.36378 2.20623 2.10899 2.00147 3.0728 1.90724 1.88113 1.61899 1.42445 1.15857 0.902626 0.81563 0.804759 0.854303 0.784849 0.775544 0.75461 0.807363 0.942897 0.668577 0.637303 0.605195 0.573936 0.530637
threshold=2.5000000000000004 1750.0000000000002 822.00000000000011 30.500000000000004 3400.0000000000005 1100.0000000000002 2250.0000000000005 1.6809090375900271 1.5000000000000002 1.0000000180025095e-35 220.50000000000003 45.500000000000007 1999.5000000000002 1.8602325916290285 2019.5000000000002 1.3602721095085146 145.50000000000003 1.2452272772789004 7100.0000000000009 1.0016722679138186 38.750000000000007 3.0569444894790654 2022.5000000000002 1.7771241664886477 3.5000000000000004 84.500000000000014 0.80123457312583934 1750.0000000000002 4.5000000000000009 125.50000000000001 36.250000000000007 2016.5000000000002 2001.5000000000002 2020.5000000000002
decision_type=2 10 8 10 8 8 10 10 2 10 10 10 2 8 2 10 8 10 8 10 10 10 2 10 2 10 10 10 2 10 10 2 2 2
left_child=1 3 4 -1 10 9 12 8 15 -5 25 22 21 14 24 32 19 20 -4 -8 -10 -3 23 -9 -6 -2 33 -28 -29 -15 -14 -13 -7 -27
right_child=2 6 18 5 13 7 16 11 17 -11 -12 31 30 29 -16 -17 -18 -19 -20 -21 -22 -23 -24 -25 -26 26 27 28 -30 -31 -32 -33 -34 -35
leaf_value=-0.0321434894695369 -0.0049711245854399009 -0.00010228445229863836 0.028620339797199502 0.0028800191081852929 0.0048086218303203037 -0.013949850563675153 -0.0079597746540994666 -0.0044429660465060408 0.0068406612996715173 -0.022114406655956119 0.01049120678581523 0.0023465670526664519 -0.010565288879493881 0 0.024705824917759547 -0.011300549693532787 0.018950506510301904 -0.0096298179159867974 0.060698015047410077 0.0065174206073459534 -0.0033112263497816138 0.010789237391139227 -0.0044429660465060408 -0.012778258217560059 0.011613762441694932 -0.0009885534964901388 -0.0009885534964901388 0.0063362390227275078 -0.0009885534964901388 0.022856562498909862 -0.0032401727015455043 -0.0044429660465060408 -0.022114406655956119 0.0063362390227275078
leaf_weight=204.36164679005742 84.890969559550285 998.27613690495491 45.642307542264462 40.839644074440002 345.75160823762417 405.72787272930145 34.270410090684891 32.671292915940285 95.266547858715057 158.34620708972216 441.52765882015228 287.35882900841534 217.09279374964535 20.941020086407661 157.56866145133972 854.74950782209635 102.16037216037512 115.39713397622108 59.132617879658937 158.3094584941864 182.54037737846375 35.60159920156002 244.08408249169588 405.01097624748945 960.18549662455916 206.67747505009174 109.71980814635754 640.6606037914753 53.983612269163132 322.3572386354208 410.09420772641897 61.00149979442358 250.54071053862572 49.76652979850769
leaf_count=404 133 1397 96 69 497 635 58 49 128 301 715 451 326 31 257 1205 184 184 170 227 262 69 325 610 1435 295 182 932 86 581 593 94 445 70
internal_value=-0.000612936 -0.00868396 0.0115315 -0.013622 0.00999515 -0.0120853 -0.000112741 -0.0107326 -0.0131779 -0.0221144 0.00472352 -0.00584734 -0.00210898 0.0144043 0.0121772 -0.0153955 0.00989993 -0.00386418 0.0472455 0.00263012 5.70662e-05 0.00043455 -0.00888593 -0.0114709 0.0100569 0.00218127 0.00299402 0.00442104 0.0056577 0.0218371 -0.00633689 0 -0.0198237 -0.000988553
internal_weight=8792.51 5293.7 3498.81 3337.9 3394.03 3133.53 1955.8 2934.35 1904.22 199.186 1587.23 1030.13 1661.06 1806.8 1463.51 1511.02 294.74 393.204 104.775 192.58 277.807 1033.88 681.766 437.682 1305.94 1145.7 1060.81 804.364 694.644 343.298 627.187 348.36 656.269 256.444
internal_count=13496 8016 5480 5162 5214 4758 2854 4388 2859 370 2413 1529 2385 2801 2189 2285 469 574 266 285 390 1466 984 659 1932 1698 1565 1200 1018 612 919 545 1080 365
is_linear=0
shrinkage=0.0950269


Tree=19
num_leaves=31
num_cat=0
split_feature=1 1 3 0 0 1 0 0 0 1 0 0 7 2 1 0 8 1 0 7 0 7 0 0 0 2 6 6 6 0
split_gain=80.7158 20.185 16.7162 11.9266 11.1088 8.29488 5.29076 5.99264 7.95592 3.36225 3.12648 5.78825 2.65499 2.48895 2.4043 2.07439 1.86686 0.837168 1.1213 0.814632 0.800576 0.740938 0.332765 0.619918 0.200715 0.191183 0.165113 0.132833 0.128622 0.0370956
threshold=150.50000000000003 1711.0000000000002 1.5000000000000002 7.5000000000000009 49.500000000000007 55.500000000000007 8.5000000000000018 48.500000000000007 27.500000000000004 514.50000000000011 56.500000000000007 58.500000000000007 6.5000000000000009 40.500000000000007 96.500000000000014 16.500000000000004 2.5000000000000004 320.50000000000006 61.500000000000007 2.5000000000000004 92.500000000000014 6.5000000000000009 93.500000000000014 96.500000000000014 98.500000000000014 219.50000000000003 1.7487499713897707 0.90743491053581249 0.66758748888969432 1.0000000180025095e-35
decision_type=10 10 2 2 2 8 2 2 2 10 2 2 2 10 10 2 2 10 2 2 2 2 2 2 2 8 10 10 10 2
left_child=2 3 5 9 -5 -1 -7 8 15 25 -9 -12 -3 -13 19 -8 20 22 -19 27 -6 29 28 -24 -16 -2 -17 -4 -18 -21
right_child=1 12 14 4 16 6 7 10 -10 -11 11 13 -14 -15 24 26 17 18 -20 21 -22 -23 23 -25 -26 -27 -28 -29 -30 -31
leaf_value=-0.02946689747325543 0.0092363345536135392 0.024799245132350548 -0.0056706991858201149 0.0018449571947854026 0.0018449571947854026 -0.0056706991858201149 -0.015187535433176134 -0.0056706991858201149 -0.019687347021682435 0.024799245132350548 -0.019687347021682435 -0.013348323404655716 0.056907528436197299 -0.0056706991858201149 0.0018449571947854026 -0.0086653546630862579 0.0018449571947854026 0.024799245132350548 0.013001024845309036 -0.0010021710837938768 0.0084581583275318405 -0.0010021710837938768 0.0018449571947854026 0.0075863375378886211 -0.0010021710837938768 0.015412045542628892 -0.0056706991858201149 -0.0010021710837938768 0.01154293337843103 -0.0056706991858201149
leaf_weight=197.42135865986347 473.55955559015274 109.41847149096429 47.230151951313019 456.47251060791314 156.99138074554503 542.84976839274168 261.92746223509312 385.10681802034378 649.68530586361885 241.65458343923092 95.760801166296005 456.76663718372583 66.672273445874453 608.49567604809999 887.61832550168037 294.50764324516058 51.653284892439842 136.60246079415083 257.31581589579582 41.744130462408066 133.9817758332938 27.084486674517393 51.22052201628685 167.68612299859524 97.215733230113983 491.83075445890427 214.44753463566303 170.98337340354919 458.38523191213608 601.08607020229101
leaf_count=367 653 239 74 787 266 773 382 545 1051 422 183 679 175 890 1233 419 74 237 434 61 224 39 76 253 136 740 293 240 672 879
internal_value=-0.000596076 0.0112245 -0.00753455 0.00914318 0.0041826 -0.011208 -0.0099078 -0.0117504 -0.0162815 0.0164406 -0.00727737 -0.0108338 0.0404553 -0.0075152 -0.000133385 -0.00821804 0.0105875 0.0123624 0.0167318 -0.0038493 0.00281822 -0.00556474 0.00927025 0.00412208 0.00184496 0.0128778 -0.0056707 -0.00100217 0.010889 -0.0056707
internal_weight=8833.38 3253.44 5579.93 3077.35 1870.31 3706.97 3509.55 2966.7 1420.57 1207.04 1546.13 1161.02 176.091 1065.26 1872.96 770.883 1413.84 1122.86 393.918 888.128 290.973 669.915 728.945 218.907 984.834 965.39 508.955 218.214 510.039 642.83
internal_count=13496 5252 8244 4838 3023 5582 5215 4442 2145 1815 2297 1752 414 1569 2662 1094 2236 1746 671 1293 490 979 1075 329 1369 1393 712 314 746 940
is_linear=0
shrinkage=0.0950269


Tree=20
num_leaves=35
num_cat=0
split_feature=8 5 2 2 0 0 0 0 0 0 0 5 5 2 0 4 0 0 4 2 0 0 0 8 0 0 9 0 0 9 4 9 9 9
split_gain=66.5598 18.7242 14.4466 6.62253 6.54089 12.7145 4.43077 4.26738 8.36848 4.52698 3.6202 3.44168 2.46304 2.15229 2.11956 1.71596 1.49119 2.98347 2.49105 1.44247 1.36843 1.52054 1.21946 1.02804 0.857349 0.853659 0.772499 0.677678 1.51744 0.660704 0.524608 0.729677 0.595961 0.513927
threshold=2.5000000000000004 1750.0000000000002 822.00000000000011 30.500000000000004 7.5000000000000009 44.500000000000007 8.5000000000000018 49.500000000000007 55.500000000000007 27.500000000000004 18.500000000000004 2250.0000000000005 3950.0000000000005 447.50000000000006 7.5000000000000009 1999.5000000000002 58.500000000000007 56.500000000000007 2017.5000000000002 145.50000000000003 50.500000000000007 8.5000000000000018 9.5000000000000018 3.5000000000000004 98.500000000000014 1.5000000000000002 35.250000000000007 55.500000000000007 78.500000000000014 44.750000000000007 2020.5000000000002 121.75000000000001 118.25000000000001 36.250000000000007
decision_type=2 10 8 10 2 2 2 2 2 2 2 10 8 10 2 2 2 2 2 8 2 2 2 2 2 2 10 2 2 10 2 10 10 10
left_child=1 3 4 -1 13 -6 25 9 -9 10 -8 15 23 30 -4 20 17 -10 -18 22 21 -3 -13 27 -25 -5 -11 -7 -29 -12 31 32 -2 -17
right_child=2 11 14 6 5 12 7 8 16 26 29 19 -14 -15 -16 33 18 -19 -20 -21 -22 -23 -24 24 -26 -27 -28 28 -30 -31 -32 -33 -34 -35
leaf_value=-0.027443876883338134 0.0067367899134741574 0.0024802286393918352 0.0605666781442405 -0.0075032271584494136 -0.008877110490470996 0.0054365388466681317 -0.016796105225045672 0.010135270172822185 -0.0019905151437157264 -0.00074030621532404964 -0.00018939412224153852 0.0097852987511613983 0.013536388862067083 0.023543035553160833 0.024167100832081248 -0.0091639626378169931 -0.0029432945910897799 -0.018796077327706173 -0.013553660191859503 0.017015636500230202 0.0040333450038725514 -0.0072928742285321996 -0.0026628949708635504 0.0098386392246710835 0 0.0019057172450337818 -0.018796077327706173 -0.0115744830674349 0.0025695504583506984 -0.0075689937201818165 0.017336253346977634 0.012521606353186037 -0.0030047139519406409 -0.0026053557053848575
leaf_weight=210.25874164607376 466.61852299049497 229.96400848776102 29.524388484656811 86.771483317017555 450.88515774905682 231.10348483920097 320.67480515688658 186.11871466040611 121.78074533492327 53.436847627162933 312.6133571639657 75.127433389425278 601.51150349527597 189.64860513806343 79.017083704471588 217.51099895499647 527.24367082864046 100.21250942349434 370.29804188758135 103.82123467884958 538.26805643737316 267.92683548480272 118.14054848253727 468.76970225572586 108.84080220758915 301.52405618131161 604.54315173439682 62.493166759610176 222.16937045753002 182.80972389131784 119.215027987957 477.05921642482281 27.295887321233749 410.73152536153793
leaf_count=404 638 312 89 132 758 319 497 269 179 74 410 104 923 329 177 326 802 183 539 184 757 397 181 712 168 429 967 102 332 277 183 709 41 593
internal_value=-0.000537393 -0.00723246 0.00951716 -0.0114905 0.00817538 0.00476527 -0.0101483 -0.0114655 -0.00705775 -0.0150674 -0.00924387 9.55375e-05 0.00856092 0.0135564 0.0401588 -0.00156086 -0.0102175 -0.0175804 -0.00775456 0.00909025 0.000717617 -0.00263939 0.00255496 0.00542325 0.00816597 -0.000256986 -0.0187961 0.00183352 -0.000901898 -0.0034368 0.0111295 0.00950868 0.00580583 -0.00538575
internal_weight=8873.93 5339.78 3534.15 3378.29 3425.61 2145.77 3168.03 2779.73 1305.65 1474.08 816.098 1961.49 1694.89 1279.84 108.541 1664.4 1119.53 221.993 897.542 297.089 1036.16 497.891 193.268 1093.38 577.611 388.296 657.98 515.766 284.663 495.423 1090.19 970.974 493.914 628.243
internal_count=13496 8016 5480 5162 5214 3314 4758 4197 1972 2225 1184 2854 2556 1900 266 2385 1703 362 1341 469 1466 709 285 1633 880 561 1041 753 434 687 1571 1388 679 919
is_linear=0
shrinkage=0.0950269


Tree=21
num_leaves=35
num_cat=0
split_feature=1 1 1 8 3 9 4 1 7 6 1 4 8 4 7 6 9 1 3 7 6 6 9 7 9 1 6 6 9 1 4 9 6 9
split_gain=56.3046 18.9948 7.62303 6.56262 5.9717 3.4027 3.21837 2.68868 2.33198 2.01283 3.11078 1.49888 1.26166 1.2515 1.04542 0.985604 0.958827 0.740748 1.05008 0.724847 0.586651 0.540306 0.656876 0.483892 0.480257 0.875489 0.352439 0.316725 0.282493 0.250698 0.202306 0.368606 0.197282 0.139877
threshold=124.50000000000001 1711.0000000000002 45.500000000000007 3.5000000000000004 1.5000000000000002 30.250000000000004 2018.5000000000002 344.50000000000006 6.5000000000000009 1.5693376064300539 83.500000000000014 1055.5000000000002 1.5000000000000002 1998.5000000000002 5.5000000000000009 0.66758748888969432 30.250000000000004 252.50000000000003 1.5000000000000002 4.5000000000000009 0.99627572298049938 2.3936743736267094 35.250000000000007 2.5000000000000004 712.50000000000011 724.50000000000011 1.0289916396141054 0.73363915085792553 99.166666666666671 161.50000000000003 2015.5000000000002 54.250000000000007 1.7017647027969363 71.583333333333357
decision_type=10 10 8 2 2 10 2 10 2 8 10 2 2 2 2 10 10 10 2 2 10 10 10 2 10 10 10 10 10 10 2 10 10 10
left_child=2 3 -1 12 5 -4 7 11 -3 10 -7 14 -2 17 29 19 23 18 -14 -6 -12 -11 -23 -17 25 -9 -16 -20 30 -5 -15 -32 -8 -22
right_child=1 8 4 6 15 9 32 24 -10 21 20 -13 13 28 26 16 -18 -19 27 -21 33 22 -24 -25 -26 -27 -28 -29 -30 -31 31 -33 -34 -35
leaf_value=-0.029610759672763276 3.7577311179375666e-05 0.020844607177786592 -0.018187306514240706 0.0018395966008409039 -0.0051799155314577834 -0.015154049449566179 0.020844607177786592 0.0096829210166414839 0.050292403529958819 -0.0051799155314577834 -0.0051799155314577834 3.7577311179375666e-05 3.7577311179375666e-05 3.7577311179375666e-05 0.0044505821505251243 0 3.7577311179375666e-05 0.0090109138779199058 0.0030168997461315302 3.7577311179375666e-05 -0.0051799155314577834 -0.0051799155314577834 -0.015268007323221235 -0.0051799155314577834 0.0087793720051273227 0.020194057995295164 3.7577311179375666e-05 0.0061028101051883192 3.7577311179375666e-05 0.0087793720051273227 3.7577311179375666e-05 0.0094643809967804946 0.00096470194262587253 -0.0097964249573271947
leaf_weight=113.73948821797967 366.04286911711097 111.07083712331951 205.18106078915298 113.1854248046875 167.97179293632507 713.3550096526742 196.21511402726173 463.08067265152931 69.240685071796179 1481.2367301881313 146.35225641727448 260.33781887590885 405.42695006728172 109.71828316152096 133.64836852252483 115.95281374454498 878.18750256672502 325.46958232671022 89.199834704399109 67.795882612466812 256.98520191013813 24.744923532009125 95.494558244943619 162.46378994733095 27.884250089526176 186.72590141743422 59.024288527667522 410.64950062334538 218.49983315169811 468.2293067574501 24.828931838274002 60.893356204032898 21.466827630996704 364.11847348511219
leaf_count=218 590 239 379 160 257 1126 311 717 175 2022 224 367 611 151 201 157 1235 538 128 93 363 33 155 247 54 353 89 574 357 665 37 90 37 543
internal_value=-0.000515149 0.00758532 -0.00751017 0.00601253 -0.00676385 -0.00896551 0.0099498 0.00816701 0.0356767 -0.00793081 -0.0105702 0.00469575 0.00207983 0.00348471 0.00678777 -0.00139432 -3.10547e-05 0.00501224 0.00319471 -0.00517992 -0.00574185 -0.00526253 -0.0120489 -0.00517992 0.012863 0.0136404 3.75773e-05 0.00599622 3.75773e-05 0.00872167 0.0036067 0.00642654 0.0208002 -0.00794031
internal_weight=8914.42 4120.84 4793.58 3940.53 4679.84 3287.47 1929.8 1712.12 180.312 3082.29 1480.81 1034.43 2010.73 1644.69 774.087 1392.37 1156.6 1230.75 905.276 235.768 767.456 1601.48 120.239 278.417 677.691 649.807 192.673 499.849 413.94 581.415 195.441 85.7223 217.682 621.104
internal_count=13496 6444 7052 6030 6834 4845 2954 2606 414 4466 2256 1482 3076 2486 1115 1989 1639 1851 1313 350 1130 2210 188 404 1124 1070 290 702 635 825 278 127 348 906
is_linear=0
shrinkage=0.0950269


Tree=22
num_leaves=35
num_cat=0
split_feature=7 1 0 0 0 5 0 0 0 0 0 0 0 3 1 0 1 0 0 0 0 1 6 6 1 7 5 0 0 7 0 0 0 6
split_gain=47.0735 15.2079 12.4093 11.7947 8.63755 6.67491 5.39919 4.47288 5.21422 4.85555 4.38771 3.30197 11.3948 2.85265 2.78064 2.72294 2.12724 1.84829 1.80835 9.34742 1.70543 1.60147 1.56138 1.31346 1.27962 1.21217 1.0467 0.926419 0.66706 0.632188 0.62798 0.497763 0.493278 0.442381
threshold=3.5000000000000004 1711.0000000000002 7.5000000000000009 48.500000000000007 55.500000000000007 3950.0000000000005 27.500000000000004 117.50000000000001 92.500000000000014 107.50000000000001 10.500000000000002 7.5000000000000009 45.500000000000007 1.5000000000000002 130.50000000000003 109.50000000000001 409.50000000000006 55.500000000000007 56.500000000000007 58.500000000000007 59.500000000000007 114.50000000000001 1.590138912200928 1.9379807710647585 71.500000000000014 6.5000000000000009 2250.0000000000005 1.0000000180025095e-35 26.500000000000004 4.5000000000000009 31.500000000000004 18.500000000000004 15.500000000000002 0.95333334803581249
decision_type=2 8 2 2 2 10 2 2 2 2 2 2 2 2 10 2 10 2 2 2 2 10 10 10 10 2 10 2 2 2 2 2 2 8
left_child=2 5 14 6 -5 11 10 8 18 24 22 21 33 -8 26 -11 17 -14 -6 -20 -19 -2 -4 28 -10 -3 -1 -23 32 -29 -15 -25 -12 -13
right_child=1 25 3 4 7 -7 13 -9 9 15 23 12 16 30 -16 -17 -18 20 19 -21 -22 27 -24 31 -26 -27 -28 29 -30 -31 -32 -33 -34 -35
leaf_value=-0.0013604033075520442 -0.0018360740565065636 0.020442994774562562 -0.027223243076626047 0.007415271465229265 -0.0010946486909779935 0.013386750353554897 -0.021261251558744164 -0.031472524968907158 -0.0028339367029955498 -0.015775996109857277 0 -0.0058055830040257116 0.0073524994058510595 0 0.011476829477861775 0 0.016190306465439962 -0.014917231011345383 -0.033138894477444211 -0.0064965156838532306 0.0015760291565597884 0.0041699032416401211 -0.0079468854137456461 -0.0056376938122202685 0.0087439444901627333 0.046084467243891987 0.0057949898847528061 0.0062144086348155415 0.00040659145771160119 0.014985614152382217 -0.012306657369343055 0.0034290972538482422 -0.0088407229561991933 -0.015733334643455554
leaf_weight=548.01461603492498 85.63554921746254 89.348441436886787 111.83055751770735 490.18881074339151 223.35019927658141 896.50501307100058 767.07134093903005 35.849619150161743 73.238478973507881 158.77990017831326 84.071037769317627 179.56266582012177 616.12392219901085 124.12686766684055 274.32636615633965 203.47176884114742 133.1268445905298 33.869234800338745 125.35496947169304 726.85551408398896 511.45034372806549 106.96086964011192 136.00131464004517 38.160786166787148 394.49609050154686 70.96627164632082 62.821618884801865 267.58407218754292 65.647673718631268 332.30708855390549 43.827098205685616 188.87666414678097 523.38160755299032 216.27093884348869
leaf_count=770 116 185 195 680 329 1378 1226 76 99 235 121 270 856 177 386 287 253 59 230 1088 766 157 185 68 602 175 91 371 95 507 73 259 763 368
internal_value=-0.000462956 0.00799968 -0.00604826 -0.00806792 -0.00343231 0.00641959 -0.0132936 -0.00630834 -0.00529665 0.000231628 -0.00836619 0.00372413 0.00120705 -0.0187671 0.00403544 -0.00753344 0.0056035 0.00390965 -0.00957621 -0.0115378 0 0.00869667 -0.0190842 -0.00476337 0.00660299 0.0344664 0.00011315 0.0101759 -0.00682669 0.0117564 -0.00523455 0.000915488 -0.00780024 -0.0122535
internal_weight=8939.45 3539.71 5399.74 4514.58 2431.59 3379.4 2082.99 1941.4 1905.55 829.986 1147.97 2482.89 1690.4 935.025 885.163 362.252 1294.57 1161.44 1075.56 852.21 545.32 792.488 247.832 900.138 467.735 160.315 610.836 706.852 673.1 599.891 167.954 227.037 607.453 395.834
internal_count=13496 5461 8035 6788 3626 5101 3162 2946 2870 1223 1686 3723 2572 1476 1247 522 1934 1681 1647 1318 825 1151 380 1306 701 360 861 1035 979 878 250 327 884 638
is_linear=0
shrinkage=0.0950269


Tree=23
num_leaves=35
num_cat=0
split_feature=8 5 2 0 0 4 2 5 0 9 2 0 0 0 0 0 0 4 2 0 5 4 4 0 0 0 9 0 0 0 0 2 2 0
split_gain=39.5 12.6957 9.89745 4.4625 9.22595 4.32145 3.61301 2.68262 2.57228 1.69582 1.67799 1.56408 2.4996 3.09875 3.00088 3.94186 2.49148 1.46459 1.42726 1.27842 1.26093 1.30804 1.01937 0.928306 0.848235 0.835325 0.809487 0.760559 0.754484 1.47 1.56655 0.831361 0.588347 0.581575
threshold=2.5000000000000004 1750.0000000000002 822.00000000000011 7.5000000000000009 44.500000000000007 2008.5000000000002 35.500000000000007 3950.0000000000005 7.5000000000000009 54.833333333333336 200.50000000000003 4.5000000000000009 54.500000000000007 55.500000000000007 58.500000000000007 56.500000000000007 30.500000000000004 2022.5000000000002 447.50000000000006 92.500000000000014 1100.0000000000002 2021.5000000000002 2014.5000000000002 93.500000000000014 4.5000000000000009 64.500000000000014 171.50000000000003 18.500000000000004 8.5000000000000018 50.500000000000007 55.500000000000007 164.50000000000003 90.500000000000014 24.500000000000004
decision_type=2 10 8 2 2 2 10 10 2 10 10 2 2 2 2 2 2 2 10 2 10 2 2 2 2 2 10 2 2 2 2 10 10 2
left_child=1 5 3 18 26 11 -7 17 -4 20 32 -1 16 -14 15 -15 27 19 -2 28 -8 22 -22 -12 -19 -16 -5 -13 31 -30 -31 -3 -6 -29
right_child=2 7 8 4 10 6 9 -9 -10 -11 23 12 13 14 25 -17 -18 24 -20 -21 21 -23 -24 -25 -26 -27 -28 33 29 30 -32 -33 -34 -35
leaf_value=0.00057502988891846272 0.0085423537156952088 0.00038728434625515638 0.050704770862490756 -0.0039696019237606996 -0.0021452312666259627 -0.025167424811132655 -0.017826062535668007 0.012370763555408653 0.019105919477520023 -0.017341948179923499 0.012754304909038805 -0.0093370370031946297 0.008134886070963316 -7.5946531124404691e-05 0.0076473200442658384 -0.032134201207678563 -0.016761220674296067 0.0029167599916837096 0.018531169764225378 0.0062879381225003647 1.499832143329e-05 -0.0047930056468877026 -0.016656999529479459 0.0067314098282572907 -0.0079038235539721346 -0.0032002760388827592 -0.013695767164452623 0.0019721249297429641 -0.0062439398340100342 0.0061941470887575288 -0.0037354417439259312 0.012868954918417188 0.004364031696612234 -0.0063553728502378998
leaf_weight=272.61329337209463 1105.8758481629193 301.96369031071663 33.961730509996414 296.38394170999527 98.700305074453354 186.5481205843389 71.375565007328987 128.40230220556259 80.218927547335625 295.06096788682044 511.94784185290337 168.767956295982 154.56994446367025 76.520295510068536 40.154945716261864 50.579028531908989 326.92994926590472 45.66847962886095 196.51731224358082 273.35275498405099 21.353174597024918 894.42872765660286 152.38967962563038 243.05587378144264 289.87986964546144 462.30024589598179 157.29864810407162 169.47149573266506 393.64127235859632 256.75095292925835 247.24711144715548 35.471178621053696 855.62339482456446 85.145377092063427
leaf_count=384 1571 399 89 481 143 343 120 201 177 481 801 261 220 111 66 103 516 64 329 407 38 1212 250 389 427 697 277 232 585 345 366 60 1223 128
internal_value=-0.000441742 -0.00557554 0.00724921 0.0061308 0.00331945 -0.00904806 -0.0126717 0.000437654 0.032081 -0.0104847 0.00655231 -0.00557431 -0.00674228 -0.00260782 -0.00569197 -0.017315 -0.0106318 -0.000502718 0.0105241 0.00071278 -0.00820502 -0.00679116 -0.0142458 0.00995122 -0.00595022 -0.00170935 -0.0082438 -0.00482615 -0.000532962 -0.00205192 0.00113571 0.00298579 0.0035116 -0.000712182
internal_weight=8980.17 5400.59 3579.58 3465.4 2163.01 3428.21 1621.16 1972.38 114.181 1434.61 1709.33 1807.05 1534.44 784.124 629.555 127.099 750.315 1843.98 1302.39 1508.43 1139.55 1068.17 173.743 755.004 335.548 502.455 453.683 423.385 1235.07 897.639 503.998 337.435 954.324 254.617
internal_count=13496 8016 5480 5214 3314 5162 2444 2854 266 2101 2556 2718 2334 1197 977 214 1137 2653 1900 2162 1620 1500 288 1190 491 763 758 621 1755 1296 711 459 1366 360
is_linear=0
shrinkage=0.0950269


Tree=24
num_leaves=35
num_cat=0
split_feature=8 5 2 0 5 2 5 0 0 6 9 0 6 6 6 0 0 9 0 0 8 0 6 0 0 5 2 2 2 5 8 2 6 0
split_gain=32.7917 10.7813 8.51333 3.85521 3.8462 4.75419 4.09533 3.74543 7.67188 3.13041 2.29281 2.25119 1.89495 1.78929 1.77702 1.58423 3.96193 1.46076 1.38679 1.36207 1.5042 1.21984 1.08337 0.996139 1.51611 0.995186 0.864681 0.838257 0.765843 0.713373 0.671643 0.62844 0.745743 0.745369
threshold=2.5000000000000004 1750.0000000000002 822.00000000000011 8.5000000000000018 1100.0000000000002 30.500000000000004 1.0000000180025095e-35 7.5000000000000009 44.500000000000007 2.078604102134705 149.25000000000003 7.5000000000000009 0.90121948719024669 1.6658332943916323 7.6050000190734872 54.500000000000007 55.500000000000007 179.50000000000003 27.500000000000004 1.0000000180025095e-35 4.5000000000000009 82.500000000000014 1.8910678625106814 55.500000000000007 59.500000000000007 3400.0000000000005 164.50000000000003 160.50000000000003 200.50000000000003 3400.0000000000005 5.5000000000000009 36.500000000000007 2.4974999427795415 97.500000000000014
decision_type=2 10 8 2 8 10 10 2 2 8 8 2 10 10 10 2 2 10 2 2 2 2 8 2 2 10 10 10 10 8 2 10 10 2
left_child=1 3 7 22 6 21 -5 19 14 23 12 -4 27 15 17 18 -17 -9 -7 -2 -21 -6 -1 28 -25 31 -11 -3 -10 -26 -30 32 -14 -33
right_child=2 10 11 4 5 13 -8 8 9 26 -12 -13 25 -15 -16 16 -18 -19 -20 20 -22 -23 -24 24 29 -27 -28 -29 30 -31 -32 33 -34 -35
leaf_value=-0.0024863970856616904 0.0006034696960634658 -0.010252686719813334 0.046371830612071369 0.0031801154586736016 -0.029676564203689176 -0.0068798232359807455 -0.02700530095998618 -0.0042473760668705176 0.0033748718878437666 0 0.010638165524024976 0.017473690735826931 -0.0030192019785646703 -0.0039864139459790705 0.0085065147177254344 0.0084070712494235811 -0.0087755863946666016 -0.017143046710413664 -0.014556097837169485 0.0075281933187864468 0.016170305624308483 -0.014556097837169485 0.0076739329303394917 -0.012796405958370591 0 0.0072018360923100091 0.017473690735826931 0 0.012165313559311618 0.0059179298176773769 0.0067230597237331012 -0.00032819322629901068 -0.015262725425993759 0.0059707819100878814
leaf_weight=295.3798520937562 169.68796794116497 201.10830442607403 36.228608347475529 34.129547793418169 118.74505644291639 402.675622433424 174.47280392050743 297.58777975291014 501.24804317951202 37.328725799918175 152.99484786577523 80.246568128466606 69.761549159884453 1233.01912676543 26.036053895950317 119.78776399791241 565.05863456428051 130.93585389852524 320.37096305936575 777.96793623268604 360.5510457418859 73.555389595218003 102.95864691585302 31.438035562634468 379.57351868599653 161.72830037772655 125.54210867732763 77.048655778169632 299.32336901128292 298.4637552946806 40.152749255299568 1121.8800520934165 26.473362527787685 165.00191687047482
leaf_count=427 251 308 89 59 222 585 311 479 675 63 266 177 108 1751 50 166 850 229 515 1087 562 126 150 56 579 241 230 114 433 459 61 1531 49 237
internal_value=-0.000420081 -0.00509302 0.00657278 -0.00828622 -0.0094286 -0.00826373 -0.0217236 0.00552974 0.00295033 0.0058997 0.000439682 0.0294176 -0.000499087 -0.00697153 -0.00757376 -0.00935865 -0.00536206 -0.00932349 -0.0126109 0.00954588 0.0107161 -0.0221407 0.000174266 0.00427228 0.0013227 0.000765491 0.0174737 -0.00735905 0.00647996 0.00266857 0.0100712 -2.66389e-05 -0.00653164 0.000493235
internal_weight=9008.46 5416.15 3592.31 3440.15 3041.81 2833.21 208.602 3475.84 2167.63 1713.07 1976 116.475 1823 2640.91 454.56 1407.89 684.846 428.524 723.047 1308.21 1138.52 192.3 398.338 1550.2 709.475 1544.85 162.871 278.157 840.724 678.037 339.476 1383.12 96.2349 1286.88
internal_count=13496 8016 5480 5162 4585 4215 370 5214 3314 2556 2854 266 2588 3867 758 2116 1016 708 1100 1900 1649 348 577 2263 1094 2166 293 422 1169 1038 494 1925 157 1768
is_linear=0
shrinkage=0.0950269


Tree=25
num_leaves=31
num_cat=0
split_feature=1 1 3 0 1 0 0 0 4 0 1 1 6 2 0 0 4 0 1 0 2 0 1 2 9 9 6 9 9 9
split_gain=28.5239 10.8828 7.05392 5.2975 4.80442 3.6003 3.37063 8.52969 1.88077 1.86498 1.79026 1.2405 1.1721 1.23097 0.876817 5.11988 0.874521 0.802106 0.721128 0.452161 0.378549 0.278789 0.311494 0.262462 0.162137 0.147988 0.138183 0.0706333 0.0605795 0.0158168
threshold=165.50000000000003 1711.0000000000002 1.5000000000000002 7.5000000000000009 45.500000000000007 49.500000000000007 27.500000000000004 45.500000000000007 1983.5000000000002 117.50000000000001 514.50000000000011 5025.0000000000009 0.72057694196701061 62.500000000000007 56.500000000000007 58.500000000000007 2021.5000000000002 9.5000000000000018 212.50000000000003 4.5000000000000009 125.50000000000001 1.5000000000000002 180.50000000000003 60.500000000000007 19.250000000000004 76.583333333333357 0.66758748888969432 109.75000000000001 218.50000000000003 91.333333333333357
decision_type=10 10 2 2 8 2 2 2 2 2 10 10 10 10 2 2 2 2 10 2 8 2 10 10 10 10 10 8 10 10
left_child=2 3 4 10 23 -5 -6 -8 18 14 21 17 19 24 -9 -16 -10 -3 26 25 -20 -2 29 -1 -14 -4 -7 -24 -22 -23
right_child=1 11 12 5 6 8 7 9 16 -11 -12 -13 13 -15 15 -17 -18 -19 20 -21 28 22 27 -25 -26 -27 -28 -29 -30 -31
leaf_value=-0.0308153584271844 0.0014234313258991425 0.029979270893793982 -0.0020204933366941204 0.0014234313258991425 -0.0031573986269774652 0.0014234313258991425 -0.015428995042470611 -0.0031573986269774652 0.0014234313258991425 -0.015428995042470611 0.016557410607425271 0.043401131180162686 -0.00086698365053916127 0.0014234313258991425 -0.015428995042470611 -0.0031573986269774652 0.013342416869269813 0.016557410607425271 0.0070869852459702187 -0.0031573986269774652 0.013728806315078113 0.0027962531535561629 0.0050957195274272931 -0.015428995042470611 -0.0031573986269774652 0.0014234313258991425 0.0042552628474792596 0.010121437978447521 0.0092244065071529994 0.0014234313258991425
leaf_weight=73.412350878119469 117.38406048715115 40.155300036072731 58.00198221206665 392.47301421500742 1420.1724971607327 24.868564665317535 697.05422066152096 458.81951236724854 342.02911011129618 28.027766138315201 258.80450695753098 41.405975817702711 32.107199970632792 1266.5247703120112 111.72951316833496 1103.0422257315367 28.563067719340324 107.1779417283833 30.545571610331535 362.09644751250744 381.46794639527798 27.204791665077209 249.86266070604324 27.687257081270218 280.82916174829006 64.314308933913708 268.13154330849648 491.01236109435558 210.35538134723902 38.483082681894302
leaf_count=138 171 92 73 679 2008 36 1080 650 537 55 422 107 44 1765 189 1590 56 215 52 533 595 36 329 50 405 92 381 706 353 57
internal_value=-0.000377295 0.00704563 -0.00419876 0.00536645 -0.006553 0.00177791 -0.00584288 -0.00810035 0.00638714 -0.00419332 0.010183 0.0277484 0.000238203 0.00142343 -0.00339917 -0.00560757 0.00142343 0.0165574 0.0086861 -0.0031574 0.0106387 0.00751989 0.00820006 -0.0250151 -0.0031574 0.00142343 0.00353526 0.00876801 0.0113618 0.00142343
internal_weight=9033.74 3049.92 5983.82 2861.19 3919.95 1678.43 3818.85 2398.67 1285.96 1701.62 1182.75 188.739 2063.87 1579.46 1673.59 1214.77 370.592 147.333 915.369 484.413 622.369 923.947 806.563 101.1 312.936 122.316 293 740.875 591.823 65.6879
internal_count=13496 4824 8672 4410 5760 2689 5572 3564 2010 2484 1721 414 2912 2214 2429 1779 593 307 1417 698 1000 1299 1128 188 449 165 417 1035 948 93
is_linear=0
shrinkage=0.0950269


Tree=26
num_leaves=35
num_cat=0
split_feature=7 0 6 0 0 0 0 9 0 0 0 0 0 0 6 9 7 6 0 6 5 0 0 6 3 0 7 5 6 0 0 9 9 9
split_gain=23.3717 7.52438 6.65058 6.63592 4.54856 4.32627 8.80188 4.49696 3.58581 3.4679 3.52972 3.1148 3.47881 2.02618 1.47856 1.54089 1.41364 1.40821 1.41858 1.33515 1.51533 1.21642 1.21559 1.20219 1.18409 1.04639 1.01431 0.887407 0.847425 0.77303 0.764988 0.538141 0.512399 0.494431
threshold=3.5000000000000004 8.5000000000000018 3.3045635223388676 44.500000000000007 55.500000000000007 7.5000000000000009 45.500000000000007 425.50000000000006 117.50000000000001 92.500000000000014 107.50000000000001 27.500000000000004 10.500000000000002 109.50000000000001 2.224513173103333 59.166666666666679 4.5000000000000009 1.6927146911621096 55.500000000000007 1.8910678625106814 2250.0000000000005 59.500000000000007 1.0000000180025095e-35 1.8675026297569277 1.5000000000000002 26.500000000000004 4.5000000000000009 3400.0000000000005 2.0207393169403081 105.50000000000001 49.500000000000007 89.250000000000014 36.583333333333336 110.25000000000001
decision_type=2 2 8 2 2 2 2 10 2 2 2 2 2 2 8 10 2 10 2 8 10 2 2 10 2 2 2 8 10 2 2 10 10 10
left_child=1 19 5 11 30 7 31 16 9 14 29 12 23 -12 15 -6 33 18 -8 20 -1 -20 -18 -3 -13 28 -4 -23 -14 -11 -5 -7 -16 -2
right_child=2 3 26 4 8 6 17 -9 -10 10 13 24 25 -15 32 -17 22 -19 21 -21 -22 27 -24 -25 -26 -27 -28 -29 -30 -31 -32 -33 -34 -35
leaf_value=-0.00074291642970227782 0 -0.019518077735805772 0.0057687527526701764 -0.0024814170631123084 -0.0023599180890629418 -0.0024482911208498701 0.0061257973512292155 0.029478011160839878 -0.026583621748912319 0.0038301638977558607 -0.0129450817695259 -0.01589130474808512 -0.0058379028164435524 8.064247022519341e-05 -0.021744942196700538 -0.010970047104420377 -0.00030896651763672188 0.011758543097364772 -0.012228780221183358 0.0096895712509757464 0.010417620615978821 -0.0014217737610735721 0.010971107114380331 -0.0021558766681374786 -0.0044214484910602538 0.0039095250946608942 0.0266083600137469 0.0053636112402726827 0.0013734719420847128 0.016101164609503154 0.0061845311414325671 -0.011801149989155364 -0.0044828047579685221 0.0057295205955457578
leaf_weight=583.96934975683689 298.1461369395256 175.923145852983 69.084952332079411 70.90336861461401 662.12140928581357 135.60231242328882 809.49625191092491 65.637215338647366 38.696590676903725 424.75563987344503 160.814956843853 734.70024548843503 634.29349709488451 203.01829233765602 68.901258965954185 287.178476318717 71.610854893922806 224.79410801827908 35.245481804013252 209.93569018691778 101.35652182996273 349.1154805123806 616.54854349046946 75.772956008091569 161.005506336689 126.32136707007885 127.13800643384457 268.95369045436382 141.01876151561737 44.245581865310669 488.2503670156002 317.85407914966345 69.844414280727506 201.6135082244873
leaf_count=809 395 275 124 101 946 203 1120 135 76 627 235 1141 919 287 120 465 109 379 61 299 144 526 907 100 239 179 265 425 208 74 675 532 116 280
internal_value=-0.000379659 -0.00429927 0.00553331 -0.00586674 -0.00248198 0.00439114 0.00167327 0.00878519 -0.00466411 -0.00376147 0.00071232 -0.00986967 -0.00614205 -0.0058738 -0.00723393 -0.00535116 0.00685035 0.00489163 0.00353695 0.00348667 0.00108083 8.90122e-06 0.00964703 -0.0155349 -0.0141789 -0.00297053 0.0215645 0.00143435 -0.00435852 0.00613373 0.00479054 -0.00959842 -0.0161444 0.0024267
internal_weight=9053.87 5463.03 3590.84 4567.77 2518.73 3394.62 2141.06 1253.56 1959.58 1920.88 832.834 2049.04 1153.33 363.833 1088.05 949.3 1187.92 1687.61 1462.81 895.262 685.326 653.315 688.159 251.696 895.706 901.634 196.223 618.069 775.312 469.001 559.154 453.456 138.746 499.76
internal_count=13496 8035 5461 6783 3722 5072 3246 1826 2946 2870 1223 3061 1681 522 1647 1411 1691 2511 2132 1252 953 1012 1016 375 1380 1306 389 951 1127 701 776 735 236 675
is_linear=0
shrinkage=0.0950269


Tree=27
num_leaves=35
num_cat=0
split_feature=7 1 0 0 0 5 0 0 0 0 0 0 8 1 3 0 0 2 1 0 0 0 8 0 0 1 1 0 0 0 0 0 0 0
split_gain=19.5531 8.92627 6.34132 5.38356 3.89312 3.3572 3.06928 2.97544 2.99129 2.50776 2.93392 1.71834 1.68589 1.60816 1.52736 1.2661 5.76823 1.15191 0.912612 0.879436 0.8171 2.53366 0.751022 0.707092 0.885698 0.687976 0.669092 0.974856 0.937276 0.652387 0.625597 0.611031 0.493356 0.491364
